{"learner":{"attributes":{"best_iteration":"239","best_ntree_limit":"240","scikit_learn":"{\"n_estimators\": 240, \"objective\": \"reg:squarederror\", \"max_depth\": 4, \"max_leaves\": null, \"max_bin\": null, \"grow_policy\": null, \"learning_rate\": 0.05, \"verbosity\": null, \"booster\": null, \"tree_method\": null, \"gamma\": null, \"min_child_weight\": null, \"max_delta_step\": null, \"subsample\": 0.8, \"sampling_method\": null, \"colsample_bytree\": 0.8, \"colsample_bylevel\": null, \"colsample_bynode\": null, \"reg_alpha\": null, \"reg_lambda\": null, \"scale_pos_weight\": null, \"base_score\": null, \"missing\": NaN, \"num_parallel_tree\": null, \"random_state\": 42, \"n_jobs\": null, \"monotone_constraints\": null, \"interaction_constraints\": null, \"importance_type\": null, \"gpu_id\": null, \"validate_parameters\": null, \"predictor\": null, \"enable_categorical\": false, \"feature_types\": null, \"max_cat_to_onehot\": null, \"max_cat_threshold\": null, \"eval_metric\": null, \"early_stopping_rounds\": null, \"callbacks\": null, \"_estimator_type\": \"regressor\"}"},"feature_names":["min","oponente_enc","USG_perc","TS_perc_x","AST_perc_x","REB_perc_x","OffRtg","DefRtg","PACE","AST_perc_y","AST_TO","REB_perc_y","eFG_perc","PIE","pts_last5_vs_opp","reb_last5_vs_opp","ast_last5_vs_opp","FG_perc_last5_vs_opp","pts_last10","reb_last10","ast_last10","FG_perc_last10","pts_last_season","reb_last_season","ast_last_season","FG_perc_last_season","ptspp","rebpp","astpp","local","dias_descanso_jugador","dias_descanso_rival","ultimo_resultado_equipo","partidos_temporada","partidos_totales","media_min_def","media_pts_def","media_reb_def","media_ast_def","fg_perc_media_def","pts_last3","reb_last3","ast_last3","pts_season_mean","reb_season_mean","ast_season_mean","pts_streak_vs_season","reb_streak_vs_season","ast_streak_vs_season","min_std_last5","min_last3","pts_local_mean"],"feature_types":["int","int","float","float","float","float","float","float","float","float","float","float","float","float","float","float","float","float","float","float","float","float","float","float","float","float","float","float","float","int","float","float","int","int","int","float","float","float","float","float","float","float","float","float","float","float","float","float","float","float","float","float"],"gradient_booster":{"model":{"gbtree_model_param":{"num_parallel_tree":"1","num_trees":"240","size_leaf_vector":"0"},"tree_info":[0,0,0,0,0,0,0,0,0,0,0,0,0,0,0,0,0,0,0,0,0,0,0,0,0,0,0,0,0,0,0,0,0,0,0,0,0,0,0,0,0,0,0,0,0,0,0,0,0,0,0,0,0,0,0,0,0,0,0,0,0,0,0,0,0,0,0,0,0,0,0,0,0,0,0,0,0,0,0,0,0,0,0,0,0,0,0,0,0,0,0,0,0,0,0,0,0,0,0,0,0,0,0,0,0,0,0,0,0,0,0,0,0,0,0,0,0,0,0,0,0,0,0,0,0,0,0,0,0,0,0,0,0,0,0,0,0,0,0,0,0,0,0,0,0,0,0,0,0,0,0,0,0,0,0,0,0,0,0,0,0,0,0,0,0,0,0,0,0,0,0,0,0,0,0,0,0,0,0,0,0,0,0,0,0,0,0,0,0,0,0,0,0,0,0,0,0,0,0,0,0,0,0,0,0,0,0,0,0,0,0,0,0,0,0,0,0,0,0,0,0,0,0,0,0,0,0,0,0,0,0,0,0,0,0,0,0,0,0,0],"trees":[{"base_weights":[2.3399596E0,1.4242846E0,5.102436E0,9.592062E-1,2.4256253E0,4.5569882E0,7.735661E0,4.704772E-1,1.3717802E0,1.7440672E0,2.8942935E0,3.211663E0,4.9778733E0,6.8566036E0,9.425427E0,1.7269675E-1,6.728818E-1,1.2464193E0,2.3867595E0,1.0193638E0,2.0029747E0,2.454375E0,3.5611145E0,2.2694955E0,3.6388888E0,4.4839253E0,5.964068E0,5.860274E0,7.684455E0,7.35443E0,9.891238E0],"categories":[],"categories_nodes":[],"categories_segments":[],"categories_sizes":[],"default_left":[1,1,1,1,1,1,1,1,1,1,1,1,1,1,1,0,0,0,0,0,0,0,0,0,0,0,0,0,0,0,0],"id":0,"left_children":[1,3,5,7,9,11,13,15,17,19,21,23,25,27,29,-1,-1,-1,-1,-1,-1,-1,-1,-1,-1,-1,-1,-1,-1,-1,-1],"loss_changes":[7.131536E4,9.860309E3,1.0046047E4,2.915628E3,2.140211E3,3.2777578E3,1.7223203E3,3.9900574E2,9.948301E2,5.1188086E2,1.1581953E3,5.5083984E2,2.1307422E3,6.106914E2,3.218164E2,0E0,0E0,0E0,0E0,0E0,0E0,0E0,0E0,0E0,0E0,0E0,0E0,0E0,0E0,0E0,0E0],"parents":[2147483647,0,0,1,1,2,2,3,3,4,4,5,5,6,6,7,7,8,8,9,9,10,10,11,11,12,12,13,13,14,14],"right_children":[2,4,6,8,10,12,14,16,18,20,22,24,26,28,30,-1,-1,-1,-1,-1,-1,-1,-1,-1,-1,-1,-1,-1,-1,-1,-1],"split_conditions":[3.8452382E0,2.0902305E0,7.1555557E0,2.05E1,2.55E1,2.65E1,8.615203E0,1.35E1,2.572476E0,1.55E1,3.440515E0,1.95E1,5.575959E0,3.35E1,3.15E1,8.634838E-3,3.364409E-2,6.2320966E-2,1.19337976E-1,5.096819E-2,1.0014874E-1,1.2271875E-1,1.7805573E-1,1.1347478E-1,1.8194444E-1,2.2419627E-1,2.982034E-1,2.930137E-1,3.8422275E-1,3.6772153E-1,4.945619E-1],"split_indices":[20,24,20,0,0,0,38,0,38,0,38,0,38,0,0,0,0,0,0,0,0,0,0,0,0,0,0,0,0,0,0],"split_type":[0,0,0,0,0,0,0,0,0,0,0,0,0,0,0,0,0,0,0,0,0,0,0,0,0,0,0,0,0,0,0],"sum_hessian":[2.8195E4,2.1177E4,7.018E3,1.4462E4,6.715E3,5.816E3,1.202E3,6.621E3,7.841E3,2.738E3,3.977E3,1.388E3,4.428E3,7.94E2,4.08E2,2.68E3,3.941E3,6.981E3,8.6E2,7.22E2,2.016E3,2.399E3,1.578E3,4.35E2,9.53E2,2.954E3,1.474E3,3.64E2,4.3E2,7.8E1,3.3E2],"tree_param":{"num_deleted":"0","num_feature":"52","num_nodes":"31","size_leaf_vector":"0"}},{"base_weights":[2.2053874E0,1.2380046E0,4.5120735E0,8.083423E-1,1.9310519E0,4.0161753E0,7.0775146E0,2.9994988E-1,1.1181914E0,1.2502011E0,2.3884475E0,2.7421088E0,4.415628E0,6.295473E0,8.838446E0,2.406929E-2,4.3427932E-1,8.912897E-1,1.4224653E0,6.168036E-1,1.4786749E0,2.2044177E0,3.6032999E0,1.4090064E0,2.9835725E0,3.4983816E0,4.8661256E0,5.4881773E0,6.8997245E0,7.093443E0,9.546959E0],"categories":[],"categories_nodes":[],"categories_segments":[],"categories_sizes":[],"default_left":[1,0,0,1,1,1,1,1,1,1,1,1,1,1,1,0,0,0,0,0,0,0,0,0,0,0,0,0,0,0,0],"id":1,"left_children":[1,3,5,7,9,11,13,15,17,19,21,23,25,27,29,-1,-1,-1,-1,-1,-1,-1,-1,-1,-1,-1,-1,-1,-1,-1,-1],"loss_changes":[6.243928E4,5.8696953E3,1.0490109E4,1.9172158E3,2.346666E3,3.5152734E3,1.7869453E3,1.7086807E2,5.208838E2,4.3815283E2,1.0008008E3,5.2917676E2,2.1627031E3,4.1579297E2,4.3794922E2,0E0,0E0,0E0,0E0,0E0,0E0,0E0,0E0,0E0,0E0,0E0,0E0,0E0,0E0,0E0,0E0],"parents":[2147483647,0,0,1,1,2,2,3,3,4,4,5,5,6,6,7,7,8,8,9,9,10,10,11,11,12,12,13,13,14,14],"right_children":[2,4,6,8,10,12,14,16,18,20,22,24,26,28,30,-1,-1,-1,-1,-1,-1,-1,-1,-1,-1,-1,-1,-1,-1,-1,-1],"split_conditions":[3.2159514E0,1.8104687E0,6.56294E0,1.85E1,2.35E1,2.55E1,8.38464E0,1.15E1,2.75E1,1.35E1,3.7746668E0,1.55E1,4.47033E0,3.35E1,3.25E1,1.2034646E-3,2.1713967E-2,4.4564486E-2,7.1123265E-2,3.0840179E-2,7.393374E-2,1.1022089E-1,1.80165E-1,7.045032E-2,1.4917862E-1,1.7491908E-1,2.4330628E-1,2.7440888E-1,3.4498623E-1,3.5467216E-1,4.7734794E-1],"split_indices":[24,45,45,0,0,0,38,0,0,0,38,0,38,0,0,0,0,0,0,0,0,0,0,0,0,0,0,0,0,0,0],"split_type":[0,0,0,0,0,0,0,0,0,0,0,0,0,0,0,0,0,0,0,0,0,0,0,0,0,0,0,0,0,0,0],"sum_hessian":[2.7983E4,1.9716E4,8.267E3,1.2172E4,7.544E3,6.93E3,1.337E3,4.61E3,7.562E3,3.033E3,4.511E3,1.656E3,5.274E3,9.29E2,4.08E2,1.51E3,3.1E3,4.334E3,3.228E3,8.05E2,2.228E3,3.92E3,5.91E2,2.55E2,1.401E3,1.74E3,3.534E3,4.02E2,5.27E2,1.21E2,2.87E2],"tree_param":{"num_deleted":"0","num_feature":"52","num_nodes":"31","size_leaf_vector":"0"}},{"base_weights":[2.1240492E0,1.1793613E0,4.325947E0,7.4049336E-1,1.8243198E0,3.728041E0,6.2256994E0,5.3502625E-1,1.3211354E0,1.3844366E0,2.640166E0,2.6714408E0,4.139061E0,5.44305E0,7.79806E0,2.6714092E-1,8.1087923E-1,8.419267E-1,1.5787114E0,1.1782359E0,1.7959187E0,2.4393017E0,3.8127081E0,1.7024239E0,2.962246E0,3.5764241E0,4.7490225E0,4.1280155E0,5.7928967E0,6.369139E0,8.371261E0],"categories":[],"categories_nodes":[],"categories_segments":[],"categories_sizes":[],"default_left":[1,1,1,1,1,1,0,1,1,1,1,1,1,1,1,0,0,0,0,0,0,0,0,0,0,0,0,0,0,0,0],"id":2,"left_children":[1,3,5,7,9,11,13,15,17,19,21,23,25,27,29,-1,-1,-1,-1,-1,-1,-1,-1,-1,-1,-1,-1,-1,-1,-1,-1],"loss_changes":[5.8591484E4,5.5787285E3,9.582875E3,1.3990737E3,2.8609004E3,2.7835547E3,2.4470703E3,6.40322E2,3.7711572E2,4.380752E2,6.489844E2,5.0359766E2,1.5723203E3,5.990117E2,4.9545312E2,0E0,0E0,0E0,0E0,0E0,0E0,0E0,0E0,0E0,0E0,0E0,0E0,0E0,0E0,0E0,0E0],"parents":[2147483647,0,0,1,1,2,2,3,3,4,4,5,5,6,6,7,7,8,8,9,9,10,10,11,11,12,12,13,13,14,14],"right_children":[2,4,6,8,10,12,14,16,18,20,22,24,26,28,30,-1,-1,-1,-1,-1,-1,-1,-1,-1,-1,-1,-1,-1,-1,-1,-1],"split_conditions":[3.2159514E0,2.55E1,6.0693665E0,1.9134183E0,2.4684618E0,2.65E1,7.836667E0,1.75E1,1.65E1,1.8514578E0,4.263078E0,1.75E1,4.793146E0,2.85E1,3.25E1,1.3357046E-2,4.0543962E-2,4.2096335E-2,7.893557E-2,5.8911797E-2,8.979594E-2,1.2196509E-1,1.9063541E-1,8.51212E-2,1.481123E-1,1.788212E-1,2.3745112E-1,2.0640078E-1,2.8964484E-1,3.1845698E-1,4.1856304E-1],"split_indices":[24,0,24,45,38,0,45,0,0,24,38,0,38,0,0,0,0,0,0,0,0,0,0,0,0,0,0,0,0,0,0],"split_type":[0,0,0,0,0,0,0,0,0,0,0,0,0,0,0,0,0,0,0,0,0,0,0,0,0,0,0,0,0,0,0],"sum_hessian":[2.8169E4,1.9713E4,8.456E3,1.1732E4,7.981E3,6.434E3,2.022E3,8.667E3,3.065E3,5.187E3,2.794E3,1.804E3,4.63E3,1.353E3,6.69E2,4.398E3,4.269E3,1.073E3,1.992E3,3.458E3,1.729E3,2.388E3,4.06E2,4.18E2,1.386E3,2.412E3,2.218E3,2.87E2,1.066E3,1.95E2,4.74E2],"tree_param":{"num_deleted":"0","num_feature":"52","num_nodes":"31","size_leaf_vector":"0"}},{"base_weights":[1.9967343E0,1.2113687E0,4.379581E0,8.091246E-1,2.042448E0,3.9984457E0,7.0750384E0,3.7881687E-1,1.1282495E0,1.2586113E0,2.3466198E0,2.660629E0,4.3248315E0,6.454481E0,8.544827E0,1.4515115E-1,5.629659E-1,1.0078489E0,1.9494549E0,8.1635255E-1,1.5028297E0,1.9265982E0,2.9265893E0,1.7235961E0,2.9513853E0,3.8308284E0,5.1605706E0,6.2228603E0,8.736947E0,6.1895494E0,9.120496E0],"categories":[],"categories_nodes":[],"categories_segments":[],"categories_sizes":[],"default_left":[1,1,0,1,1,1,1,1,1,1,1,1,1,1,1,0,0,0,0,0,0,0,0,0,0,0,0,0,0,0,0],"id":3,"left_children":[1,3,5,7,9,11,13,15,17,19,21,23,25,27,29,-1,-1,-1,-1,-1,-1,-1,-1,-1,-1,-1,-1,-1,-1,-1,-1],"loss_changes":[5.285068E4,7.1001504E3,7.1640625E3,1.9656104E3,1.6488281E3,2.66775E3,7.3471484E2,2.623111E2,8.1077734E2,2.0820044E2,1.2099238E3,3.2348535E2,2.0160312E3,2.6970508E2,2.879375E2,0E0,0E0,0E0,0E0,0E0,0E0,0E0,0E0,0E0,0E0,0E0,0E0,0E0,0E0,0E0,0E0],"parents":[2147483647,0,0,1,1,2,2,3,3,4,4,5,5,6,6,7,7,8,8,9,9,10,10,11,11,12,12,13,13,14,14],"right_children":[2,4,6,8,10,12,14,16,18,20,22,24,26,28,30,-1,-1,-1,-1,-1,-1,-1,-1,-1,-1,-1,-1,-1,-1,-1,-1],"split_conditions":[3.8944445E0,2.1180556E0,7.3360214E0,1.95E1,2.25E1,2.55E1,9.523136E0,1.35E1,2.5860977E0,1.55E1,3.2840614E0,1.75E1,5.557292E0,4.05E1,3.15E1,7.257558E-3,2.8148297E-2,5.0392445E-2,9.747275E-2,4.081763E-2,7.514148E-2,9.632991E-2,1.4632946E-1,8.617981E-2,1.4756927E-1,1.9154142E-1,2.5802854E-1,3.11143E-1,4.3684736E-1,3.0947748E-1,4.560248E-1],"split_indices":[20,20,45,0,0,0,38,0,38,0,38,0,38,0,0,0,0,0,0,0,0,0,0,0,0,0,0,0,0,0,0],"split_type":[0,0,0,0,0,0,0,0,0,0,0,0,0,0,0,0,0,0,0,0,0,0,0,0,0,0,0,0,0,0,0],"sum_hessian":[2.8243E4,2.1243E4,7E3,1.4316E4,6.927E3,6.135E3,8.65E2,6.097E3,8.219E3,1.938E3,4.989E3,1.205E3,4.93E3,6.12E2,2.53E2,2.688E3,3.409E3,7.17E3,1.049E3,6.91E2,1.247E3,2.896E3,2.093E3,2.87E2,9.18E2,3.102E3,1.828E3,5.59E2,5.3E1,5.2E1,2.01E2],"tree_param":{"num_deleted":"0","num_feature":"52","num_nodes":"31","size_leaf_vector":"0"}},{"base_weights":[1.9135407E0,1.2063389E0,4.295611E0,7.9186094E-1,2.0423982E0,3.9226038E0,6.7576704E0,5.064688E-1,1.0669711E0,1.5929072E0,2.4406877E0,3.4935424E0,4.630007E0,6.2119956E0,8.083944E0,3.6323622E-1,7.027673E-1,9.944543E-1,1.7209331E0,1.5085253E0,2.0353827E0,2.1014502E0,2.723572E0,2.9986987E0,3.7213118E0,4.057459E0,4.8526316E0,5.3946137E0,6.701548E0,6.512471E0,8.519719E0],"categories":[],"categories_nodes":[],"categories_segments":[],"categories_sizes":[],"default_left":[1,1,1,0,1,1,1,1,1,1,1,1,1,1,1,0,0,0,0,0,0,0,0,0,0,0,0,0,0,0,0],"id":4,"left_children":[1,3,5,7,9,11,13,15,17,19,21,23,25,27,29,-1,-1,-1,-1,-1,-1,-1,-1,-1,-1,-1,-1,-1,-1,-1,-1],"loss_changes":[4.7337273E4,7.507996E3,5.881336E3,1.1371309E3,1.2818887E3,1.6801953E3,5.613242E2,1.997644E2,3.4812988E2,1.230166E2,3.5951953E2,3.8141406E2,2.48875E2,2.0513867E2,1.10924805E2,0E0,0E0,0E0,0E0,0E0,0E0,0E0,0E0,0E0,0E0,0E0,0E0,0E0,0E0,0E0,0E0],"parents":[2147483647,0,0,1,1,2,2,3,3,4,4,5,5,6,6,7,7,8,8,9,9,10,10,11,11,12,12,13,13,14,14],"right_children":[2,4,6,8,10,12,14,16,18,20,22,24,26,28,30,-1,-1,-1,-1,-1,-1,-1,-1,-1,-1,-1,-1,-1,-1,-1,-1],"split_conditions":[4.05E0,2.1129417E0,7.775E0,1.3222681E0,3.146111E0,5.447222E0,9.523136E0,1.0367002E0,3.2084374E0,3.267857E0,3.1573787E0,4.504402E0,5.725E0,7.3057294E0,1.91E1,1.8161811E-2,3.5138365E-2,4.9722716E-2,8.604666E-2,7.5426266E-2,1.0176914E-1,1.0507251E-1,1.361786E-1,1.4993493E-1,1.860656E-1,2.0287295E-1,2.4263158E-1,2.697307E-1,3.350774E-1,3.2562357E-1,4.2598596E-1],"split_indices":[20,24,20,45,38,24,38,24,38,20,24,38,20,38,26,0,0,0,0,0,0,0,0,0,0,0,0,0,0,0,0],"split_type":[0,0,0,0,0,0,0,0,0,0,0,0,0,0,0,0,0,0,0,0,0,0,0,0,0,0,0,0,0,0,0],"sum_hessian":[2.8102E4,2.167E4,6.432E3,1.4489E4,7.181E3,5.588E3,8.44E2,7.113E3,7.376E3,3.376E3,3.805E3,3.482E3,2.106E3,6.02E2,2.42E2,4.114E3,2.999E3,6.642E3,7.34E2,2.839E3,5.37E2,1.734E3,2.071E3,1.102E3,2.38E3,5.95E2,1.511E3,2.3E2,3.72E2,5.6E1,1.86E2],"tree_param":{"num_deleted":"0","num_feature":"52","num_nodes":"31","size_leaf_vector":"0"}},{"base_weights":[1.8055565E0,1.1381916E0,4.082136E0,8.069423E-1,2.046363E0,3.72407E0,6.5278683E0,5.586895E-1,1.1559428E0,1.6393024E0,2.4091887E0,3.2460139E0,4.302969E0,6.000977E0,7.7973423E0,3.5230336E-1,6.965979E-1,1.043492E0,1.7734572E0,1.4354208E0,1.8353143E0,2.1444507E0,2.5909913E0,2.7095065E0,3.4341588E0,3.9414577E0,4.8006353E0,5.384062E0,6.682017E0,7.9943748E0,5.1262674E0],"categories":[],"categories_nodes":[],"categories_segments":[],"categories_sizes":[],"default_left":[1,1,1,1,1,1,1,1,1,1,0,1,1,1,1,0,0,0,0,0,0,0,0,0,0,0,0,0,0,0,0],"id":5,"left_children":[1,3,5,7,9,11,13,15,17,19,21,23,25,27,29,-1,-1,-1,-1,-1,-1,-1,-1,-1,-1,-1,-1,-1,-1,-1,-1],"loss_changes":[4.2891547E4,6.566994E3,5.5803906E3,1.3856875E3,8.5783594E2,1.5316641E3,4.990078E2,2.659348E2,4.599248E2,1.0738428E2,1.4282812E2,2.9987695E2,4.349961E2,2.081289E2,8.322266E1,0E0,0E0,0E0,0E0,0E0,0E0,0E0,0E0,0E0,0E0,0E0,0E0,0E0,0E0,0E0,0E0],"parents":[2147483647,0,0,1,1,2,2,3,3,4,4,5,5,6,6,7,7,8,8,9,9,10,10,11,11,12,12,13,13,14,14],"right_children":[2,4,6,8,10,12,14,16,18,20,22,24,26,28,30,-1,-1,-1,-1,-1,-1,-1,-1,-1,-1,-1,-1,-1,-1,-1,-1],"split_conditions":[4.05E0,2.4722223E0,7.775E0,1.5277778E0,3.2840614E0,5.4142857E0,9.523136E0,9.5E-1,3.2084374E0,2.4556286E0,2.6166668E1,4.2433915E0,6.251375E0,4.8500004E0,1.355E1,1.7615167E-2,3.4829896E-2,5.2174598E-2,8.867286E-2,7.177104E-2,9.176572E-2,1.07222535E-1,1.2954956E-1,1.3547532E-1,1.7170794E-1,1.970729E-1,2.4003176E-1,2.692031E-1,3.3410084E-1,3.9971873E-1,2.5631338E-1],"split_indices":[20,20,20,20,38,20,38,20,38,38,50,38,38,27,19,0,0,0,0,0,0,0,0,0,0,0,0,0,0,0,0],"split_type":[0,0,0,0,0,0,0,0,0,0,0,0,0,0,0,0,0,0,0,0,0,0,0,0,0,0,0,0,0,0,0],"sum_hessian":[2.8233E4,2.1834E4,6.399E3,1.6E4,5.834E3,5.584E3,8.15E2,9.351E3,6.649E3,2.752E3,3.082E3,3.062E3,2.522E3,5.8E2,2.35E2,3.747E3,5.604E3,5.627E3,1.022E3,1.353E3,1.399E3,1.26E3,1.822E3,7.99E2,2.263E3,1.466E3,1.056E3,3.09E2,2.71E2,2.17E2,1.8E1],"tree_param":{"num_deleted":"0","num_feature":"52","num_nodes":"31","size_leaf_vector":"0"}},{"base_weights":[1.716832E0,1.0565764E0,3.788946E0,6.1534536E-1,1.648631E0,3.4753716E0,6.2111416E0,4.1931581E-1,1.1374946E0,1.2129472E0,2.3674793E0,2.6221032E0,3.951187E0,4.8459725E0,6.84956E0,1.2234911E-1,6.07939E-1,6.01984E-1,1.3479098E0,1.0225707E0,1.5418539E0,2.1013286E0,3.0721426E0,1.5879369E0,2.8840828E0,3.4396374E0,4.6325126E0,2.8781443E0,5.183528E0,6.2600803E0,8.040172E0],"categories":[],"categories_nodes":[],"categories_segments":[],"categories_sizes":[],"default_left":[1,1,1,1,1,1,1,1,1,1,1,1,1,1,1,0,0,0,0,0,0,0,0,0,0,0,0,0,0,0,0],"id":6,"left_children":[1,3,5,7,9,11,13,15,17,19,21,23,25,27,29,-1,-1,-1,-1,-1,-1,-1,-1,-1,-1,-1,-1,-1,-1,-1,-1],"loss_changes":[3.844168E4,5.566381E3,5.1356797E3,1.2496055E3,2.847164E3,2.4313125E3,6.4399805E2,4.973932E2,3.747495E2,3.5333105E2,6.373906E2,5.795469E2,1.3290508E3,1.518081E2,3.1953906E2,0E0,0E0,0E0,0E0,0E0,0E0,0E0,0E0,0E0,0E0,0E0,0E0,0E0,0E0,0E0,0E0],"parents":[2147483647,0,0,1,1,2,2,3,3,4,4,5,5,6,6,7,7,8,8,9,9,10,10,11,11,12,12,13,13,14,14],"right_children":[2,4,6,8,10,12,14,16,18,20,22,24,26,28,30,-1,-1,-1,-1,-1,-1,-1,-1,-1,-1,-1,-1,-1,-1,-1,-1],"split_conditions":[3.7245688E0,2.55E1,7.845238E0,1.9766009E0,2.572476E0,2.95E1,3.25E1,1.55E1,1.55E1,1.8031942E0,3.8716257E0,1.95E1,5.4389577E0,2.55E1,9.523136E0,6.1174557E-3,3.0396951E-2,3.0099202E-2,6.739549E-2,5.1128536E-2,7.70927E-2,1.0506643E-1,1.5360713E-1,7.9396844E-2,1.4420414E-1,1.7198187E-1,2.3162563E-1,1.4390722E-1,2.591764E-1,3.1300402E-1,4.020086E-1],"split_indices":[24,0,20,45,38,0,0,0,0,24,38,0,38,0,38,0,0,0,0,0,0,0,0,0,0,0,0,0,0,0,0],"split_type":[0,0,0,0,0,0,0,0,0,0,0,0,0,0,0,0,0,0,0,0,0,0,0,0,0,0,0,0,0,0,0],"sum_hessian":[2.81E4,2.1311E4,6.789E3,1.2212E4,9.099E3,6.013E3,7.76E2,8.88E3,3.332E3,5.667E3,3.432E3,2.155E3,3.858E3,2.5E2,5.26E2,3.45E3,5.43E3,9.41E2,2.391E3,3.592E3,2.075E3,2.494E3,9.38E2,4.37E2,1.718E3,2.207E3,1.651E3,3.8E1,2.12E2,3.56E2,1.7E2],"tree_param":{"num_deleted":"0","num_feature":"52","num_nodes":"31","size_leaf_vector":"0"}},{"base_weights":[1.6345606E0,1.0085329E0,3.6486344E0,7.15872E-1,1.8313843E0,3.258131E0,5.4697614E0,2.989406E-1,1.0056052E0,1.2738334E0,2.1967993E0,1.9597383E0,3.5441096E0,4.2278676E0,6.165281E0,-5.5974926E-4,4.1881847E-1,8.5010976E-1,1.4225844E0,6.6060436E-1,1.4821478E0,1.9029496E0,2.4499078E0,6.923869E-1,2.1532319E0,3.2193396E0,4.0520663E0,2.0321527E0,4.5487657E0,5.621614E0,7.798221E0],"categories":[],"categories_nodes":[],"categories_segments":[],"categories_sizes":[],"default_left":[1,1,1,1,1,1,1,1,1,1,1,1,1,1,1,0,0,0,0,0,0,0,0,0,0,0,0,0,0,0,0],"id":7,"left_children":[1,3,5,7,9,11,13,15,17,19,21,23,25,27,29,-1,-1,-1,-1,-1,-1,-1,-1,-1,-1,-1,-1,-1,-1,-1,-1],"loss_changes":[3.542792E4,5.161551E3,4.720617E3,1.9102554E3,1.1430215E3,2.0311875E3,9.8885547E2,2.3287018E2,6.037969E2,2.8376318E2,2.4791797E2,2.4201685E2,7.288242E2,2.9021094E2,6.2288086E2,0E0,0E0,0E0,0E0,0E0,0E0,0E0,0E0,0E0,0E0,0E0,0E0,0E0,0E0,0E0,0E0],"parents":[2147483647,0,0,1,1,2,2,3,3,4,4,5,5,6,6,7,7,8,8,9,9,10,10,11,11,12,12,13,13,14,14],"right_children":[2,4,6,8,10,12,14,16,18,20,22,24,26,28,30,-1,-1,-1,-1,-1,-1,-1,-1,-1,-1,-1,-1,-1,-1,-1,-1],"split_conditions":[3.8017857E0,2.4722223E0,6.774597E0,1.95E1,2.65E1,2.45E1,3.25E1,1.15E1,1.8689932E0,1.65E1,3.1547618E0,1.45E1,5.5277777E0,2.25E1,9.75E0,-2.7987464E-5,2.0940924E-2,4.2505488E-2,7.1129225E-2,3.303022E-2,7.410739E-2,9.514748E-2,1.2249539E-1,3.4619346E-2,1.076616E-1,1.6096698E-1,2.0260333E-1,1.01607636E-1,2.2743829E-1,2.810807E-1,3.8991106E-1],"split_indices":[24,20,24,0,0,0,0,0,24,0,20,0,20,0,20,0,0,0,0,0,0,0,0,0,0,0,0,0,0,0,0],"split_type":[0,0,0,0,0,0,0,0,0,0,0,0,0,0,0,0,0,0,0,0,0,0,0,0,0,0,0,0,0,0,0],"sum_hessian":[2.81E4,2.1438E4,6.662E3,1.5815E4,5.623E3,5.488E3,1.174E3,6.485E3,9.33E3,2.228E3,3.395E3,9.92E2,4.496E3,4.24E2,7.5E2,1.854E3,4.631E3,6.798E3,2.532E3,5.66E2,1.662E3,1.575E3,1.82E3,1.32E2,8.6E2,2.747E3,1.749E3,5.5E1,3.69E2,5.66E2,1.84E2],"tree_param":{"num_deleted":"0","num_feature":"52","num_nodes":"31","size_leaf_vector":"0"}},{"base_weights":[1.5536023E0,9.686755E-1,3.49618E0,6.3127786E-1,1.6626457E0,3.1848245E0,5.410906E0,3.4407446E-1,1.0222269E0,1.2424139E0,2.1194034E0,2.5409977E0,3.7042372E0,3.1355126E0,5.6865864E0,1.18043065E-1,5.2332723E-1,9.816168E-1,3.6762154E0,5.853862E-1,1.4117132E0,1.8181406E0,2.8393593E0,1.7744007E0,2.8732708E0,3.258397E0,4.2900677E0,3.1137058E-1,3.5127974E0,5.3893375E0,7.664059E0],"categories":[],"categories_nodes":[],"categories_segments":[],"categories_sizes":[],"default_left":[1,1,1,1,1,1,1,1,1,1,1,1,1,1,0,0,0,0,0,0,0,0,0,0,0,0,0,0,0,0,0],"id":8,"left_children":[1,3,5,7,9,11,13,15,17,19,21,23,25,27,29,-1,-1,-1,-1,-1,-1,-1,-1,-1,-1,-1,-1,-1,-1,-1,-1],"loss_changes":[3.2133625E4,5.089006E3,3.8846406E3,1.6422202E3,1.3622812E3,1.874E3,5.555039E2,3.4169714E2,6.640801E2,4.114082E2,7.3358496E2,6.362842E2,7.996172E2,1.0652228E2,4.3716602E2,0E0,0E0,0E0,0E0,0E0,0E0,0E0,0E0,0E0,0E0,0E0,0E0,0E0,0E0,0E0,0E0],"parents":[2147483647,0,0,1,1,2,2,3,3,4,4,5,5,6,6,7,7,8,8,9,9,10,10,11,11,12,12,13,13,14,14],"right_children":[2,4,6,8,10,12,14,16,18,20,22,24,26,28,30,-1,-1,-1,-1,-1,-1,-1,-1,-1,-1,-1,-1,-1,-1,-1,-1],"split_conditions":[4.05E0,2.1130552E0,7.2349234E0,2.35E1,2.85E1,3.15E1,2.75E1,1.55E1,4.632272E0,1.55E1,3.6557274E0,2.35E1,5.4389577E0,1.65E1,1.0710526E1,5.9021534E-3,2.6166363E-2,4.908084E-2,1.8381077E-1,2.9269312E-2,7.058566E-2,9.090703E-2,1.4196797E-1,8.872004E-2,1.4366354E-1,1.6291986E-1,2.145034E-1,1.5568529E-2,1.7563987E-1,2.6946688E-1,3.8320297E-1],"split_indices":[20,24,24,0,0,0,0,0,38,0,38,0,38,0,45,0,0,0,0,0,0,0,0,0,0,0,0,0,0,0,0],"split_type":[0,0,0,0,0,0,0,0,0,0,0,0,0,0,0,0,0,0,0,0,0,0,0,0,0,0,0,0,0,0,0],"sum_hessian":[2.8282E4,2.1738E4,6.544E3,1.4628E4,7.11E3,5.631E3,9.13E2,8.434E3,6.194E3,3.705E3,3.405E3,2.517E3,3.114E3,1E2,8.13E2,3.731E3,4.703E3,6.102E3,9.2E1,7.6E2,2.945E3,2.403E3,1.002E3,7.63E2,1.754E3,1.772E3,1.342E3,1.2E1,8.8E1,7.1E2,1.03E2],"tree_param":{"num_deleted":"0","num_feature":"52","num_nodes":"31","size_leaf_vector":"0"}},{"base_weights":[1.474788E0,9.271117E-1,3.3295476E0,5.4067665E-1,1.4851147E0,3.0703144E0,5.5241165E0,2.6427022E-1,6.881409E-1,1.1620822E0,1.841624E0,2.6434798E0,3.5402853E0,4.01406E0,5.8609214E0,1.9354306E-1,3.8590816E-1,5.6999487E-1,8.710299E-1,1.0683404E0,1.37637E0,1.7412817E0,2.4743438E0,2.3589952E0,2.9990237E0,3.3119814E0,4.028586E0,2.339853E0,4.676347E0,5.530147E0,7.3219447E0],"categories":[],"categories_nodes":[],"categories_segments":[],"categories_sizes":[],"default_left":[1,0,0,0,1,1,1,1,1,1,0,1,0,1,0,0,0,0,0,0,0,0,0,0,0,0,0,0,0,0,0],"id":9,"left_children":[1,3,5,7,9,11,13,15,17,19,21,23,25,27,29,-1,-1,-1,-1,-1,-1,-1,-1,-1,-1,-1,-1,-1,-1,-1,-1],"loss_changes":[2.8690434E4,4.701914E3,3.6462188E3,5.2509326E2,1.0254688E3,1.1463008E3,3.218086E2,3.8510254E1,1.8107227E2,9.2620605E1,2.648828E2,2.9869336E2,2.920039E2,1.2987634E2,2.2675781E2,0E0,0E0,0E0,0E0,0E0,0E0,0E0,0E0,0E0,0E0,0E0,0E0,0E0,0E0,0E0,0E0],"parents":[2147483647,0,0,1,1,2,2,3,3,4,4,5,5,6,6,7,7,8,8,9,9,10,10,11,11,12,12,13,13,14,14],"right_children":[2,4,6,8,10,12,14,16,18,20,22,24,26,28,30,-1,-1,-1,-1,-1,-1,-1,-1,-1,-1,-1,-1,-1,-1,-1,-1],"split_conditions":[4.05E0,1.912662E0,7.836667E0,1.0973916E0,2.7638888E0,5.4142857E0,1.109E2,9.5E-1,1.6125E0,6.6849816E-1,4.2454176E0,1.143E2,7.166667E0,8.05E0,1.0710526E1,9.677153E-3,1.9295407E-2,2.8499743E-2,4.3551497E-2,5.3417023E-2,6.88185E-2,8.706409E-2,1.2371719E-1,1.1794976E-1,1.4995119E-1,1.6559908E-1,2.014293E-1,1.1699265E-1,2.3381734E-1,2.7650735E-1,3.6609724E-1],"split_indices":[20,45,45,45,20,20,7,20,20,46,45,7,42,20,45,0,0,0,0,0,0,0,0,0,0,0,0,0,0,0,0],"split_type":[0,0,0,0,0,0,0,0,0,0,0,0,0,0,0,0,0,0,0,0,0,0,0,0,0,0,0,0,0,0,0],"sum_hessian":[2.8246E4,2.1808E4,6.438E3,1.2886E4,8.922E3,5.76E3,6.78E2,4.484E3,8.402E3,4.683E3,4.239E3,3.022E3,2.738E3,1.26E2,5.52E2,2.837E3,1.647E3,5.107E3,3.295E3,3.262E3,1.421E3,3.662E3,5.77E2,1.683E3,1.339E3,1.871E3,8.67E2,3.7E1,8.9E1,4.54E2,9.8E1],"tree_param":{"num_deleted":"0","num_feature":"52","num_nodes":"31","size_leaf_vector":"0"}},{"base_weights":[1.3949593E0,8.187758E-1,3.0134716E0,4.901011E-1,1.3530598E0,2.6427166E0,4.4108458E0,3.5655007E-1,1.0332859E0,9.8711693E-1,1.9126209E0,1.9658457E0,3.0614817E0,3.9558902E0,5.7044044E0,7.2394945E-2,5.081084E-1,5.820662E-1,1.3634324E0,8.4069353E-1,1.2482065E0,1.7554265E0,2.7867522E0,1.3249168E0,2.2540066E0,2.7335515E0,3.7488823E0,3.3514788E0,4.5228004E0,3.9913049E0,6.1471543E0],"categories":[],"categories_nodes":[],"categories_segments":[],"categories_sizes":[],"default_left":[1,1,1,1,1,1,1,1,1,1,1,1,1,1,1,0,0,0,0,0,0,0,0,0,0,0,0,0,0,0,0],"id":10,"left_children":[1,3,5,7,9,11,13,15,17,19,21,23,25,27,29,-1,-1,-1,-1,-1,-1,-1,-1,-1,-1,-1,-1,-1,-1,-1,-1],"loss_changes":[2.6213664E4,3.640169E3,3.8117969E3,9.3093726E2,1.614956E3,1.6479102E3,8.8727344E2,4.4380225E2,3.7654395E2,1.8153516E2,4.2395996E2,4.0942773E2,8.019375E2,3.7785742E2,2.7885547E2,0E0,0E0,0E0,0E0,0E0,0E0,0E0,0E0,0E0,0E0,0E0,0E0,0E0,0E0,0E0,0E0],"parents":[2147483647,0,0,1,1,2,2,3,3,4,4,5,5,6,6,7,7,8,8,9,9,10,10,11,11,12,12,13,13,14,14],"right_children":[2,4,6,8,10,12,14,16,18,20,22,24,26,28,30,-1,-1,-1,-1,-1,-1,-1,-1,-1,-1,-1,-1,-1,-1,-1,-1],"split_conditions":[3.5037313E0,2.65E1,6.3506756E0,2.9131944E0,2.4684618E0,2.95E1,8.38464E0,1.55E1,1.75E1,1.8434436E0,4.3673296E0,2.15E1,5.4389577E0,3.35E1,3.15E1,3.6197472E-3,2.540542E-2,2.9103309E-2,6.817162E-2,4.203468E-2,6.2410325E-2,8.777133E-2,1.3933761E-1,6.624585E-2,1.12700336E-1,1.3667758E-1,1.8744412E-1,1.6757394E-1,2.2614002E-1,1.9956525E-1,3.0735773E-1],"split_indices":[24,0,24,38,38,0,38,0,0,24,38,0,38,0,0,0,0,0,0,0,0,0,0,0,0,0,0,0,0,0,0],"split_type":[0,0,0,0,0,0,0,0,0,0,0,0,0,0,0,0,0,0,0,0,0,0,0,0,0,0,0,0,0,0,0],"sum_hessian":[2.8111E4,2.0732E4,7.379E3,1.2837E4,7.895E3,5.834E3,1.545E3,1.0305E4,2.532E3,4.775E3,3.12E3,2.232E3,3.602E3,1.146E3,3.99E2,3.585E3,6.72E3,1.071E3,1.461E3,3.062E3,1.713E3,2.647E3,4.73E2,6.94E2,1.538E3,2.442E3,1.16E3,5.58E2,5.88E2,8.4E1,3.15E2],"tree_param":{"num_deleted":"0","num_feature":"52","num_nodes":"31","size_leaf_vector":"0"}},{"base_weights":[1.316876E0,8.4830225E-1,3.068416E0,4.795864E-1,1.352368E0,2.7923987E0,4.8355064E0,2.0222273E-1,7.5773954E-1,8.990593E-1,1.7627729E0,2.0472565E0,3.1520433E0,2.6912215E0,5.1297603E0,-1.0593483E-2,3.2527274E-1,6.168449E-1,1.020501E0,4.6261713E-1,1.1052642E0,1.5283298E0,2.1180255E0,1.3981962E0,2.3518066E0,2.8268652E0,3.5154452E0,7.835618E-1,3.022547E0,4.868223E0,6.561764E0],"categories":[],"categories_nodes":[],"categories_segments":[],"categories_sizes":[],"default_left":[1,0,1,1,1,1,1,1,1,1,0,1,1,1,0,0,0,0,0,0,0,0,0,0,0,0,0,0,0,0,0],"id":11,"left_children":[1,3,5,7,9,11,13,15,17,19,21,23,25,27,29,-1,-1,-1,-1,-1,-1,-1,-1,-1,-1,-1,-1,-1,-1,-1,-1],"loss_changes":[2.3151715E4,4.136342E3,2.8905508E3,9.9175903E2,1.7477539E3,1.3742109E3,4.9285938E2,1.6862177E2,2.370127E2,4.017732E2,4.0769824E2,3.2879932E2,4.0046875E2,6.020526E1,2.3209375E2,0E0,0E0,0E0,0E0,0E0,0E0,0E0,0E0,0E0,0E0,0E0,0E0,0E0,0E0,0E0,0E0],"parents":[2147483647,0,0,1,1,2,2,3,3,4,4,5,5,6,6,7,7,8,8,9,9,10,10,11,11,12,12,13,13,14,14],"right_children":[2,4,6,8,10,12,14,16,18,20,22,24,26,28,30,-1,-1,-1,-1,-1,-1,-1,-1,-1,-1,-1,-1,-1,-1,-1,-1],"split_conditions":[4.267857E0,1.8905765E0,7.845238E0,2.15E1,2.65E1,2.95E1,2.85E1,1.35E1,3.05E1,1.65E1,3.1573787E0,2.25E1,1.1375E2,2.25E1,1.0710526E1,-5.296742E-4,1.6263638E-2,3.0842245E-2,5.102505E-2,2.3130856E-2,5.526321E-2,7.641649E-2,1.0590128E-1,6.990981E-2,1.1759033E-1,1.4134327E-1,1.7577226E-1,3.9178092E-2,1.5112735E-1,2.4341117E-1,3.280882E-1],"split_indices":[20,45,20,0,0,0,0,0,0,0,45,0,7,0,45,0,0,0,0,0,0,0,0,0,0,0,0,0,0,0,0],"split_type":[0,0,0,0,0,0,0,0,0,0,0,0,0,0,0,0,0,0,0,0,0,0,0,0,0,0,0,0,0,0,0],"sum_hessian":[2.8211E4,2.2258E4,5.953E3,1.2856E4,9.402E3,5.151E3,8.02E2,6.438E3,6.418E3,4.469E3,4.933E3,1.679E3,3.472E3,9.8E1,7.04E2,2.359E3,4.079E3,4.18E3,2.238E3,1.435E3,3.034E3,2.975E3,1.958E3,5.38E2,1.141E3,1.837E3,1.635E3,1.5E1,8.3E1,5.99E2,1.05E2],"tree_param":{"num_deleted":"0","num_feature":"52","num_nodes":"31","size_leaf_vector":"0"}},{"base_weights":[1.2567568E0,6.80122E-1,2.5374403E0,4.0498945E-1,1.1624987E0,2.1362827E0,3.6970923E0,2.882416E-1,8.0210304E-1,9.0062076E-1,1.6907823E0,1.6043113E0,2.5178208E0,2.9625766E0,4.314474E0,4.009799E-2,4.2205605E-1,1.7700076E-1,9.4496095E-1,1.5328337E0,8.360138E-1,1.546927E0,2.896074E0,1.0836683E-1,1.7118357E0,2.367415E0,3.7583048E0,1.9339217E0,3.2920096E0,3.7680018E0,5.194112E0],"categories":[],"categories_nodes":[],"categories_segments":[],"categories_sizes":[],"default_left":[1,1,0,1,1,1,1,1,1,1,1,1,1,1,1,0,0,0,0,0,0,0,0,0,0,0,0,0,0,0,0],"id":12,"left_children":[1,3,5,7,9,11,13,15,17,19,21,23,25,27,29,-1,-1,-1,-1,-1,-1,-1,-1,-1,-1,-1,-1,-1,-1,-1,-1],"loss_changes":[2.0881203E4,2.5875205E3,4.0761172E3,5.755405E2,9.7824316E2,1.3203223E3,1.0098086E3,3.187198E2,2.5175049E2,1.9220264E2,4.0228662E2,4.3861523E2,6.9971875E2,3.4368848E2,5.6832227E2,0E0,0E0,0E0,0E0,0E0,0E0,0E0,0E0,0E0,0E0,0E0,0E0,0E0,0E0,0E0,0E0],"parents":[2147483647,0,0,1,1,2,2,3,3,4,4,5,5,6,6,7,7,8,8,9,9,10,10,11,11,12,12,13,13,14,14],"right_children":[2,4,6,8,10,12,14,16,18,20,22,24,26,28,30,-1,-1,-1,-1,-1,-1,-1,-1,-1,-1,-1,-1,-1,-1,-1,-1],"split_conditions":[3.2161765E0,2.65E1,5.8921146E0,2.572476E0,2.4684618E0,2.95E1,3.35E1,1.55E1,1.25E1,2.2152977E1,4.416667E0,1.35E1,5.8912206E0,2.55E1,7.5953135E0,2.0048996E-3,2.1102803E-2,8.850038E-3,4.7248047E-2,7.6641686E-2,4.180069E-2,7.734635E-2,1.448037E-1,5.4183416E-3,8.5591786E-2,1.1837075E-1,1.8791525E-1,9.6696086E-2,1.6460048E-1,1.8840009E-1,2.597056E-1],"split_indices":[45,0,45,38,38,0,0,0,0,35,38,0,38,0,38,0,0,0,0,0,0,0,0,0,0,0,0,0,0,0,0],"split_type":[0,0,0,0,0,0,0,0,0,0,0,0,0,0,0,0,0,0,0,0,0,0,0,0,0,0,0,0,0,0,0],"sum_hessian":[2.8277E4,1.9499E4,8.778E3,1.2418E4,7.081E3,6.524E3,2.254E3,9.598E3,2.82E3,4.736E3,2.345E3,2.727E3,3.797E3,1.032E3,1.222E3,3.363E3,6.235E3,5.25E2,2.295E3,4.37E2,4.299E3,2.097E3,2.48E2,1.83E2,2.544E3,3.389E3,4.08E2,2.52E2,7.8E2,7.57E2,4.65E2],"tree_param":{"num_deleted":"0","num_feature":"52","num_nodes":"31","size_leaf_vector":"0"}},{"base_weights":[1.2009126E0,6.7467755E-1,2.5039494E0,4.129596E-1,1.0623976E0,2.2669694E0,4.2343717E0,1.9181065E-1,5.427358E-1,8.7265956E-1,1.4113102E0,1.8342462E0,2.7165017E0,3.79311E0,5.299955E0,9.2955485E-2,3.089969E-1,4.5109537E-1,6.8448246E-1,7.231945E-1,1.1485332E0,1.3401994E0,2.4513183E0,1.5178518E0,2.1460047E0,2.5121267E0,3.1420197E0,2.9397178E0,4.0890555E0,3.7494097E0,5.6327643E0],"categories":[],"categories_nodes":[],"categories_segments":[],"categories_sizes":[],"default_left":[1,0,1,0,1,1,1,1,1,1,0,1,1,0,1,0,0,0,0,0,0,0,0,0,0,0,0,0,0,0,0],"id":13,"left_children":[1,3,5,7,9,11,13,15,17,19,21,23,25,27,29,-1,-1,-1,-1,-1,-1,-1,-1,-1,-1,-1,-1,-1,-1,-1,-1],"loss_changes":[1.931595E4,2.0360283E3,3.3136484E3,3.4380664E2,5.3414355E2,1.3819688E3,4.3834375E2,5.1325195E1,9.777661E1,2.1527441E2,2.0726709E2,3.553916E2,2.9604883E2,1.6300098E2,1.24918945E2,0E0,0E0,0E0,0E0,0E0,0E0,0E0,0E0,0E0,0E0,0E0,0E0,0E0,0E0,0E0,0E0],"parents":[2147483647,0,0,1,1,2,2,3,3,4,4,5,5,6,6,7,7,8,8,9,9,10,10,11,11,12,12,13,13,14,14],"right_children":[2,4,6,8,10,12,14,16,18,20,22,24,26,28,30,-1,-1,-1,-1,-1,-1,-1,-1,-1,-1,-1,-1,-1,-1,-1,-1],"split_conditions":[3.308258E0,1.7623956E0,7.3127413E0,1.0899538E0,3.1808333E0,4.8166666E0,9.044466E0,1.2519841E0,1.5104213E0,2.188988E-1,4.7250824E0,4.504402E0,6.052755E0,2.85E1,1.109E2,4.647774E-3,1.5449844E-2,2.2554768E-2,3.4224123E-2,3.6159724E-2,5.742666E-2,6.700997E-2,1.2256592E-1,7.589259E-2,1.0730024E-1,1.2560634E-1,1.5710099E-1,1.4698589E-1,2.0445278E-1,1.8747048E-1,2.8163823E-1],"split_indices":[24,45,38,45,38,20,24,38,24,48,45,38,38,50,7,0,0,0,0,0,0,0,0,0,0,0,0,0,0,0,0],"split_type":[0,0,0,0,0,0,0,0,0,0,0,0,0,0,0,0,0,0,0,0,0,0,0,0,0,0,0,0,0,0,0],"sum_hessian":[2.8171E4,2.0068E4,8.103E3,1.1982E4,8.086E3,7.129E3,9.74E2,4.432E3,7.55E3,5.24E3,2.846E3,3.635E3,3.494E3,6.92E2,2.82E2,2.405E3,2.027E3,4.588E3,2.962E3,3.401E3,1.839E3,2.666E3,1.8E2,1.807E3,1.828E3,2.365E3,1.129E3,1.81E2,5.11E2,5.2E1,2.3E2],"tree_param":{"num_deleted":"0","num_feature":"52","num_nodes":"31","size_leaf_vector":"0"}},{"base_weights":[1.1394442E0,7.082316E-1,2.5994518E0,4.8288062E-1,1.3229284E0,2.3624668E0,4.108337E0,2.6137933E-1,6.650089E-1,1.0557598E0,1.533201E0,2.0577874E0,2.7980034E0,3.7482345E0,5.1846294E0,1.4995182E-1,3.9838144E-1,5.962812E-1,1.1110224E0,9.7501296E-1,1.3717744E0,1.2365735E0,1.6556826E0,1.6477478E0,2.2207844E0,2.6122262E0,3.2761574E0,2.7496333E0,4.043359E0,5.2626705E0,8.3876646E-1],"categories":[],"categories_nodes":[],"categories_segments":[],"categories_sizes":[],"default_left":[1,1,1,0,1,1,1,1,1,0,0,1,0,1,0,0,0,0,0,0,0,0,0,0,0,0,0,0,0,0,0],"id":14,"left_children":[1,3,5,7,9,11,13,15,17,19,21,23,25,27,29,-1,-1,-1,-1,-1,-1,-1,-1,-1,-1,-1,-1,-1,-1,-1,-1],"loss_changes":[1.7764727E4,3.0173516E3,2.2909844E3,6.430337E2,3.2668652E2,7.324492E2,3.185332E2,1.0979303E2,2.6752515E2,6.4420166E1,1.1668408E2,2.1535938E2,1.9459766E2,1.8250781E2,6.884326E1,0E0,0E0,0E0,0E0,0E0,0E0,0E0,0E0,0E0,0E0,0E0,0E0,0E0,0E0,0E0,0E0],"parents":[2147483647,0,0,1,1,2,2,3,3,4,4,5,5,6,6,7,7,8,8,9,9,10,10,11,11,12,12,13,13,14,14],"right_children":[2,4,6,8,10,12,14,16,18,20,22,24,26,28,30,-1,-1,-1,-1,-1,-1,-1,-1,-1,-1,-1,-1,-1,-1,-1,-1],"split_conditions":[3.867157E0,2.4722223E0,7.5953135E0,1.3222681E0,3.1808333E0,5.563492E0,9.398275E0,1.4204545E0,3.2084374E0,4.3930492E0,-1.6326909E0,4.504402E0,7.583333E0,6.06E1,4.4512744E0,7.497591E-3,1.9919073E-2,2.9814059E-2,5.555112E-2,4.875065E-2,6.8588726E-2,6.1828673E-2,8.278413E-2,8.238739E-2,1.1103922E-1,1.3061132E-1,1.6380787E-1,1.3748167E-1,2.0216794E-1,2.6313353E-1,4.1938324E-2],"split_indices":[24,20,38,45,38,20,24,38,38,46,46,38,42,9,47,0,0,0,0,0,0,0,0,0,0,0,0,0,0,0,0],"split_type":[0,0,0,0,0,0,0,0,0,0,0,0,0,0,0,0,0,0,0,0,0,0,0,0,0,0,0,0,0,0,0],"sum_hessian":[2.8219E4,2.1786E4,6.433E3,1.5943E4,5.843E3,5.562E3,8.71E2,7.195E3,8.748E3,2.576E3,3.267E3,3.276E3,2.286E3,6.56E2,2.15E2,3.969E3,3.226E3,7.582E3,1.166E3,2.055E3,5.21E2,9.58E2,2.309E3,9.35E2,2.341E3,1.651E3,6.35E2,1.52E2,5.04E2,2.11E2,4E0],"tree_param":{"num_deleted":"0","num_feature":"52","num_nodes":"31","size_leaf_vector":"0"}},{"base_weights":[1.0787299E0,6.3744295E-1,2.4058955E0,3.415317E-1,1.0480185E0,2.1364074E0,3.6274347E0,1.1724383E-1,5.4333097E-1,7.886942E-1,1.5078335E0,1.7022351E0,2.5960946E0,2.8304987E0,4.198552E0,-9.6977E-3,3.098319E-1,4.5038664E-1,1.0489733E0,6.562429E-1,9.7908837E-1,1.2829319E0,1.858538E0,1.1599681E0,1.9203912E0,2.163972E0,2.843996E0,2.2337206E-1,2.9858582E0,3.8721154E0,5.296124E0],"categories":[],"categories_nodes":[],"categories_segments":[],"categories_sizes":[],"default_left":[1,1,1,1,0,1,1,1,1,1,1,1,1,1,1,0,0,0,0,0,0,0,0,0,0,0,0,0,0,0,0],"id":15,"left_children":[1,3,5,7,9,11,13,15,17,19,21,23,25,27,29,-1,-1,-1,-1,-1,-1,-1,-1,-1,-1,-1,-1,-1,-1,-1,-1],"loss_changes":[1.647077E4,2.5642559E3,2.3025078E3,5.552451E2,1.0530225E3,1.143584E3,5.6478516E2,1.4209143E2,3.030315E2,1.4196509E2,2.4898682E2,3.4805566E2,2.9293555E2,2.1481543E2,2.4319238E2,0E0,0E0,0E0,0E0,0E0,0E0,0E0,0E0,0E0,0E0,0E0,0E0,0E0,0E0,0E0,0E0],"parents":[2147483647,0,0,1,1,2,2,3,3,4,4,5,5,6,6,7,7,8,8,9,9,10,10,11,11,12,12,13,13,14,14],"right_children":[2,4,6,8,10,12,14,16,18,20,22,24,26,28,30,-1,-1,-1,-1,-1,-1,-1,-1,-1,-1,-1,-1,-1,-1,-1,-1],"split_conditions":[3.8166666E0,2.55E1,7.05E0,1.75E1,2.3905506E0,3.25E1,3.35E1,1.4654763E0,2.691987E0,1.7041247E0,3.35E1,2.35E1,4.8166666E0,2.05E1,9.398275E0,-4.84885E-4,1.5491595E-2,2.2519333E-2,5.2448668E-2,3.2812145E-2,4.895442E-2,6.41466E-2,9.2926905E-2,5.7998408E-2,9.601956E-2,1.081986E-1,1.421998E-1,1.1168603E-2,1.4929292E-1,1.9360577E-1,2.648062E-1],"split_indices":[20,0,20,0,45,0,0,45,45,24,0,0,20,0,24,0,0,0,0,0,0,0,0,0,0,0,0,0,0,0,0],"split_type":[0,0,0,0,0,0,0,0,0,0,0,0,0,0,0,0,0,0,0,0,0,0,0,0,0,0,0,0,0,0,0],"sum_hessian":[2.8125E4,2.1108E4,7.017E3,1.2268E4,8.84E3,5.751E3,1.266E3,5.811E3,6.457E3,5.654E3,3.186E3,2.96E3,2.791E3,5.31E2,7.35E2,3.503E3,2.308E3,5.456E3,1.001E3,3.337E3,2.317E3,1.944E3,1.242E3,8.51E2,2.109E3,1.021E3,1.77E3,3E1,5.01E2,5.7E2,1.65E2],"tree_param":{"num_deleted":"0","num_feature":"52","num_nodes":"31","size_leaf_vector":"0"}},{"base_weights":[1.0219469E0,5.848264E-1,2.1556363E0,2.9482636E-1,1.0224512E0,1.0443152E0,2.5165272E0,8.5518815E-2,4.5744008E-1,7.966758E-1,1.3954581E0,4.9897543E-1,1.4163299E0,2.1659007E0,3.436615E0,-1.3902599E-1,1.7544347E-1,3.626696E-1,7.590134E-1,6.378433E-1,1.0424048E0,2.6162012E0,1.3360333E0,-1.20423935E-1,7.3666114E-1,9.2452824E-1,1.7369391E0,1.8733964E0,2.5611336E0,3.0506685E0,4.1421223E0],"categories":[],"categories_nodes":[],"categories_segments":[],"categories_sizes":[],"default_left":[1,1,1,1,1,1,1,1,1,1,1,1,1,1,1,0,0,0,0,0,0,0,0,0,0,0,0,0,0,0,0],"id":16,"left_children":[1,3,5,7,9,11,13,15,17,19,21,23,25,27,29,-1,-1,-1,-1,-1,-1,-1,-1,-1,-1,-1,-1,-1,-1,-1,-1],"loss_changes":[1.3985889E4,2.5851338E3,3.1473398E3,4.1704138E2,6.826367E2,3.9023193E2,1.9049727E3,1.0823393E2,1.9681421E2,1.9682544E2,2.1848389E2,1.15363785E2,1.7893335E2,4.9173438E2,4.3228125E2,0E0,0E0,0E0,0E0,0E0,0E0,0E0,0E0,0E0,0E0,0E0,0E0,0E0,0E0,0E0,0E0],"parents":[2147483647,0,0,1,1,2,2,3,3,4,4,5,5,6,6,7,7,8,8,9,9,10,10,11,11,12,12,13,13,14,14],"right_children":[2,4,6,8,10,12,14,16,18,20,22,24,26,28,30,-1,-1,-1,-1,-1,-1,-1,-1,-1,-1,-1,-1,-1,-1,-1,-1],"split_conditions":[4.033076E0,2.65E1,2.45E1,1.75E1,2.5277777E0,1.75E1,6.525178E0,1.05E1,2.5860977E0,1.9887277E0,3.2825E-1,1.15E1,5.4389577E0,3.45E1,8.021493E0,-6.9512995E-3,8.772174E-3,1.813348E-2,3.7950672E-2,3.1892166E-2,5.212024E-2,1.3081007E-1,6.680167E-2,-6.021197E-3,3.683306E-2,4.6226412E-2,8.6846955E-2,9.3669824E-2,1.2805669E-1,1.5253343E-1,2.0710611E-1],"split_indices":[38,0,0,0,20,0,38,0,38,38,39,0,38,0,38,0,0,0,0,0,0,0,0,0,0,0,0,0,0,0,0],"split_type":[0,0,0,0,0,0,0,0,0,0,0,0,0,0,0,0,0,0,0,0,0,0,0,0,0,0,0,0,0,0,0],"sum_hessian":[2.8224E4,2.0371E4,7.853E3,1.2253E4,8.118E3,1.926E3,5.927E3,5.358E3,6.895E3,5.059E3,3.059E3,7.82E2,1.144E3,4.294E3,1.633E3,1.532E3,3.826E3,5.248E3,1.647E3,3.075E3,1.984E3,1.4E2,2.919E3,2.17E2,5.65E2,4.53E2,6.91E2,2.471E3,1.823E3,1.059E3,5.74E2],"tree_param":{"num_deleted":"0","num_feature":"52","num_nodes":"31","size_leaf_vector":"0"}},{"base_weights":[9.772448E-1,5.04633E-1,1.9793543E0,3.2125452E-1,9.9368626E-1,1.2237724E0,2.4256127E0,1.14628196E-1,5.1331055E-1,7.777793E-1,1.3059863E0,4.6718362E-1,1.484687E0,2.0088165E0,3.2867613E0,-1.0365053E-1,2.0096186E-1,4.2533758E-1,8.022911E-1,1.7424136E0,6.767596E-1,1.0752753E0,1.6073467E0,-4.770148E-2,6.674014E-1,1.0869277E0,1.8873554E0,1.8364246E0,2.5533168E0,2.9936984E0,4.0773735E0],"categories":[],"categories_nodes":[],"categories_segments":[],"categories_sizes":[],"default_left":[1,1,1,1,1,1,1,1,1,1,1,1,1,1,0,0,0,0,0,0,0,0,0,0,0,0,0,0,0,0,0],"id":17,"left_children":[1,3,5,7,9,11,13,15,17,19,21,23,25,27,29,-1,-1,-1,-1,-1,-1,-1,-1,-1,-1,-1,-1,-1,-1,-1,-1],"loss_changes":[1.3332508E4,1.7154741E3,3.0391133E3,5.521813E2,3.5075488E2,6.610083E2,2.0288555E3,1.2637522E2,1.8300574E2,2.9964E2,1.464336E2,8.879161E1,3.9708008E2,3.542588E2,4.1597266E2,0E0,0E0,0E0,0E0,0E0,0E0,0E0,0E0,0E0,0E0,0E0,0E0,0E0,0E0,0E0,0E0],"parents":[2147483647,0,0,1,1,2,2,3,3,4,4,5,5,6,6,7,7,8,8,9,9,10,10,11,11,12,12,13,13,14,14],"right_children":[2,4,6,8,10,12,14,16,18,20,22,24,26,28,30,-1,-1,-1,-1,-1,-1,-1,-1,-1,-1,-1,-1,-1,-1,-1,-1],"split_conditions":[3.5854168E0,2.95E1,2.85E1,1.95E1,2.3032925E0,1.75E1,5.9673347E0,1.15E1,2.3166666E0,2.1962133E1,3.45E1,1.15E1,5.457491E0,3.75E1,8.833334E0,-5.1825265E-3,1.0048093E-2,2.126688E-2,4.0114556E-2,8.712068E-2,3.383798E-2,5.3763766E-2,8.0367334E-2,-2.385074E-3,3.337007E-2,5.4346383E-2,9.436777E-2,9.182123E-2,1.2766585E-1,1.4968492E-1,2.0386867E-1],"split_indices":[38,0,0,0,38,0,38,0,20,35,0,0,38,0,42,0,0,0,0,0,0,0,0,0,0,0,0,0,0,0,0],"split_type":[0,0,0,0,0,0,0,0,0,0,0,0,0,0,0,0,0,0,0,0,0,0,0,0,0,0,0,0,0,0,0],"sum_hessian":[2.8152E4,1.9131E4,9.021E3,1.3915E4,5.216E3,3.351E3,5.67E3,6.704E3,7.211E3,3.086E3,2.13E3,8.6E2,2.491E3,3.823E3,1.847E3,1.9E3,4.804E3,5.53E3,1.681E3,2.91E2,2.795E3,1.209E3,9.21E2,2.41E2,6.19E2,1.255E3,1.236E3,2.907E3,9.16E2,1.351E3,4.96E2],"tree_param":{"num_deleted":"0","num_feature":"52","num_nodes":"31","size_leaf_vector":"0"}},{"base_weights":[9.217338E-1,5.820992E-1,2.1904962E0,3.194351E-1,9.8179907E-1,1.7509682E0,2.852479E0,1.02496594E-1,4.912151E-1,7.259275E-1,1.3314762E0,1.0658171E0,1.9728669E0,2.4826221E0,3.870635E0,-1.277747E-1,1.9432005E-1,3.9161593E-1,9.52889E-1,5.9811234E-1,9.155784E-1,1.1131884E0,1.607181E0,2.4238873E-1,1.2153056E0,1.566707E0,2.343349E0,2.292687E0,3.1573565E0,3.599624E0,5.589354E0],"categories":[],"categories_nodes":[],"categories_segments":[],"categories_sizes":[],"default_left":[1,1,1,1,0,1,1,1,0,1,1,1,1,1,1,0,0,0,0,0,0,0,0,0,0,0,0,0,0,0,0],"id":18,"left_children":[1,3,5,7,9,11,13,15,17,19,21,23,25,27,29,-1,-1,-1,-1,-1,-1,-1,-1,-1,-1,-1,-1,-1,-1,-1,-1],"loss_changes":[1.2133307E4,2.3319683E3,1.7250547E3,4.9957092E2,7.871963E2,5.415703E2,8.8324414E2,1.2532599E2,3.4366675E2,1.2281128E2,2.2215186E2,1.0765802E2,4.0261133E2,2.1600781E2,2.733291E2,0E0,0E0,0E0,0E0,0E0,0E0,0E0,0E0,0E0,0E0,0E0,0E0,0E0,0E0,0E0,0E0],"parents":[2147483647,0,0,1,1,2,2,3,3,4,4,5,5,6,6,7,7,8,8,9,9,10,10,11,11,12,12,13,13,14,14],"right_children":[2,4,6,8,10,12,14,16,18,20,22,24,26,28,30,-1,-1,-1,-1,-1,-1,-1,-1,-1,-1,-1,-1,-1,-1,-1,-1],"split_conditions":[4.0170956E0,2.65E1,3.45E1,1.75E1,2.388689E0,2.45E1,6.723856E0,1.05E1,2.765006E0,1.7349939E0,3.35E1,1.55E1,1.13649994E2,3.95E1,1.0708334E1,-6.388735E-3,9.716003E-3,1.9580796E-2,4.764445E-2,2.9905617E-2,4.5778923E-2,5.565942E-2,8.035905E-2,1.2119437E-2,6.0765278E-2,7.833535E-2,1.1716745E-1,1.1463435E-1,1.5786783E-1,1.799812E-1,2.794677E-1],"split_indices":[24,0,0,0,45,0,24,0,45,24,0,0,7,0,24,0,0,0,0,0,0,0,0,0,0,0,0,0,0,0,0],"split_type":[0,0,0,0,0,0,0,0,0,0,0,0,0,0,0,0,0,0,0,0,0,0,0,0,0,0,0,0,0,0,0],"sum_hessian":[2.8159E4,2.2214E4,5.945E3,1.3406E4,8.808E3,3.575E3,2.37E3,5.925E3,7.481E3,5.088E3,3.72E3,8.76E2,2.699E3,1.741E3,6.29E2,1.689E3,4.236E3,6.155E3,1.326E3,3.042E3,2.046E3,2.079E3,1.641E3,1.35E2,7.41E2,1.29E3,1.409E3,1.362E3,3.79E2,5.46E2,8.3E1],"tree_param":{"num_deleted":"0","num_feature":"52","num_nodes":"31","size_leaf_vector":"0"}},{"base_weights":[8.8068616E-1,5.176777E-1,1.9472712E0,2.8546163E-1,9.074781E-1,1.2019467E0,2.3792284E0,6.6371106E-2,4.4043404E-1,6.447714E-1,1.1905272E0,5.509794E-1,1.4375482E0,2.1506119E0,3.6549518E0,-2.0807612E-1,1.2215269E-1,3.432751E-1,7.2403884E-1,1.5234276E0,5.414784E-1,9.832969E-1,1.5210774E0,-1.6082944E-1,7.5204057E-1,1.3327194E0,2.3628824E0,1.9545231E0,2.6099815E0,2.635379E0,3.9851103E0],"categories":[],"categories_nodes":[],"categories_segments":[],"categories_sizes":[],"default_left":[1,1,1,1,1,1,1,1,1,1,1,1,1,1,1,0,0,0,0,0,0,0,0,0,0,0,0,0,0,0,0],"id":19,"left_children":[1,3,5,7,9,11,13,15,17,19,21,23,25,27,29,-1,-1,-1,-1,-1,-1,-1,-1,-1,-1,-1,-1,-1,-1,-1,-1],"loss_changes":[1.0912414E4,1.9034238E3,2.3013223E3,4.47505E2,5.830239E2,4.02261E2,1.3133203E3,8.364374E1,2.12474E2,3.689275E2,2.5729736E2,1.0030292E2,1.8396704E2,3.411543E2,2.2075586E2,0E0,0E0,0E0,0E0,0E0,0E0,0E0,0E0,0E0,0E0,0E0,0E0,0E0,0E0,0E0,0E0],"parents":[2147483647,0,0,1,1,2,2,3,3,4,4,5,5,6,6,7,7,8,8,9,9,10,10,11,11,12,12,13,13,14,14],"right_children":[2,4,6,8,10,12,14,16,18,20,22,24,26,28,30,-1,-1,-1,-1,-1,-1,-1,-1,-1,-1,-1,-1,-1,-1,-1,-1],"split_conditions":[4.3835893E0,2.75E1,2.85E1,1.75E1,2.3032925E0,1.75E1,7.5953135E0,8.5E0,2.211111E0,2.2152977E1,3.45E1,1.05E1,7.3127413E0,5.9673347E0,1.114E2,-1.0403806E-2,6.107635E-3,1.7163755E-2,3.6201943E-2,7.617138E-2,2.707392E-2,4.9164843E-2,7.605387E-2,-8.041472E-3,3.760203E-2,6.6635974E-2,1.1814412E-1,9.772616E-2,1.3049908E-1,1.3176896E-1,1.9925551E-1],"split_indices":[38,0,0,0,38,0,38,0,20,35,0,0,38,38,7,0,0,0,0,0,0,0,0,0,0,0,0,0,0,0,0],"split_type":[0,0,0,0,0,0,0,0,0,0,0,0,0,0,0,0,0,0,0,0,0,0,0,0,0,0,0,0,0,0,0],"sum_hessian":[2.8186E4,2.103E4,7.156E3,1.318E4,7.85E3,2.627E3,4.529E3,5.461E3,7.719E3,4.073E3,3.777E3,6.99E2,1.928E3,3.843E3,6.86E2,9.22E2,4.539E3,5.751E3,1.968E3,4.27E2,3.646E3,2.324E3,1.453E3,1.54E2,5.45E2,1.734E3,1.94E2,2.697E3,1.146E3,1.7E2,5.16E2],"tree_param":{"num_deleted":"0","num_feature":"52","num_nodes":"31","size_leaf_vector":"0"}},{"base_weights":[8.377455E-1,5.325999E-1,1.9767059E0,3.5354435E-1,9.882539E-1,1.5896217E0,2.5505412E0,1.7692456E-1,5.8550006E-1,4.7897816E-1,1.1287249E0,8.264595E-1,1.7732794E0,2.3315847E0,3.813635E0,-2.9335195E-2,2.7086115E-1,1.0282801E0,5.183951E-1,6.7483413E-1,1.616743E-1,1.509836E0,1.0047011E0,-3.047274E-1,9.3220836E-1,1.647561E0,2.6082306E0,2.2268324E0,3.3325925E0,4.6204534E0,3.2988675E0],"categories":[],"categories_nodes":[],"categories_segments":[],"categories_sizes":[],"default_left":[1,1,1,1,1,1,0,1,1,0,0,1,0,1,0,0,0,0,0,0,0,0,0,0,0,0,0,0,0,0,0],"id":20,"left_children":[1,3,5,7,9,11,13,15,17,19,21,23,25,27,29,-1,-1,-1,-1,-1,-1,-1,-1,-1,-1,-1,-1,-1,-1,-1,-1],"loss_changes":[9.80573E3,1.8154595E3,1.3202383E3,6.545238E2,4.4857715E2,4.9792676E2,6.548594E2,1.7580038E2,2.0469287E2,8.434714E1,2.3103613E2,8.3181915E1,2.9706934E2,2.0732715E2,1.3136719E2,0E0,0E0,0E0,0E0,0E0,0E0,0E0,0E0,0E0,0E0,0E0,0E0,0E0,0E0,0E0,0E0],"parents":[2147483647,0,0,1,1,2,2,3,3,4,4,5,5,6,6,7,7,8,8,9,9,10,10,11,11,12,12,13,13,14,14],"right_children":[2,4,6,8,10,12,14,16,18,20,22,24,26,28,30,-1,-1,-1,-1,-1,-1,-1,-1,-1,-1,-1,-1,-1,-1,-1,-1],"split_conditions":[4.267857E0,2.4722223E0,3.45E1,2.35E1,2.15E1,2.35E1,8.833334E0,1.35E1,1.8416668E1,3.6876812E0,3.3541565E0,1.35E1,7.187953E0,4.15E1,4.0445633E0,-1.4667598E-3,1.3543057E-2,5.141401E-2,2.5919756E-2,3.374171E-2,8.083715E-3,7.54918E-2,5.023506E-2,-1.523637E-2,4.661042E-2,8.237805E-2,1.3041154E-1,1.1134162E-1,1.6662963E-1,2.3102267E-1,1.6494338E-1],"split_indices":[20,20,0,0,0,0,42,0,50,44,44,0,45,0,44,0,0,0,0,0,0,0,0,0,0,0,0,0,0,0,0],"split_type":[0,0,0,0,0,0,0,0,0,0,0,0,0,0,0,0,0,0,0,0,0,0,0,0,0,0,0,0,0,0,0],"sum_hessian":[2.8216E4,2.2255E4,5.961E3,1.5978E4,6.277E3,3.562E3,2.399E3,9.072E3,6.906E3,1.358E3,4.919E3,6.92E2,2.87E3,2.047E3,3.52E2,2.839E3,6.233E3,9.07E2,5.999E3,8.39E2,5.19E2,1.205E3,3.714E3,5.9E1,6.33E2,2.497E3,3.73E2,1.856E3,1.91E2,1.34E2,2.18E2],"tree_param":{"num_deleted":"0","num_feature":"52","num_nodes":"31","size_leaf_vector":"0"}},{"base_weights":[7.9949707E-1,5.042195E-1,1.9058656E0,3.389925E-1,9.8351014E-1,1.7660518E0,3.27042E0,1.5915674E-1,5.3960073E-1,6.885353E-1,1.2535552E0,1.0507458E0,1.9641378E0,2.396494E0,3.6309888E0,3.930565E-3,2.7426052E-1,5.079402E-2,6.1505634E-1,1.2620094E0,6.4119494E-1,1.7619327E0,1.1204109E0,8.5943395E-1,1.5970385E0,1.845178E0,2.9734051E0,3.1956313E0,1.7290927E0,3.2992384E0,5.056371E0],"categories":[],"categories_nodes":[],"categories_segments":[],"categories_sizes":[],"default_left":[1,1,1,1,0,1,1,1,1,1,1,1,1,1,1,0,0,0,0,0,0,0,0,0,0,0,0,0,0,0,0],"id":21,"left_children":[1,3,5,7,9,11,13,15,17,19,21,23,25,27,29,-1,-1,-1,-1,-1,-1,-1,-1,-1,-1,-1,-1,-1,-1,-1,-1],"loss_changes":[9.162902E3,1.7532095E3,1.1215645E3,5.9402246E2,4.512671E2,7.5768945E2,1.63979E2,1.5517485E2,2.8706738E2,7.289868E1,1.9851709E2,1.2038428E2,4.9853516E2,8.140967E1,1.658457E2,0E0,0E0,0E0,0E0,0E0,0E0,0E0,0E0,0E0,0E0,0E0,0E0,0E0,0E0,0E0,0E0],"parents":[2147483647,0,0,1,1,2,2,3,3,4,4,5,5,6,6,7,7,8,8,9,9,10,10,11,11,12,12,13,13,14,14],"right_children":[2,4,6,8,10,12,14,16,18,20,22,24,26,28,30,-1,-1,-1,-1,-1,-1,-1,-1,-1,-1,-1,-1,-1,-1,-1,-1],"split_conditions":[4.0170956E0,3.05E1,8.422222E0,1.5676548E0,2.161343E0,2.65E1,3.25E1,1.75E1,1.35E1,3.8511539E-1,3.4749374E0,4.975122E-1,3.95E1,5.465E1,1.1063051E1,1.9652826E-4,1.3713026E-2,2.539701E-3,3.0752817E-2,6.310047E-2,3.2059748E-2,8.809664E-2,5.6020547E-2,4.2971697E-2,7.9851925E-2,9.22589E-2,1.4867026E-1,1.5978156E-1,8.645464E-2,1.6496192E-1,2.5281855E-1],"split_indices":[24,0,20,45,45,0,0,0,0,39,23,39,0,12,24,0,0,0,0,0,0,0,0,0,0,0,0,0,0,0,0],"split_type":[0,0,0,0,0,0,0,0,0,0,0,0,0,0,0,0,0,0,0,0,0,0,0,0,0,0,0,0,0,0,0],"sum_hessian":[2.805E4,2.2142E4,5.908E3,1.6467E4,5.675E3,5.361E3,5.47E2,8.684E3,7.783E3,2.714E3,2.961E3,1.164E3,4.197E3,1.62E2,3.85E2,3.698E3,4.986E3,1.041E3,6.742E3,2.05E2,2.509E3,6.12E2,2.349E3,8.64E2,3E2,3.757E3,4.4E2,7.2E1,9E1,3.15E2,7E1],"tree_param":{"num_deleted":"0","num_feature":"52","num_nodes":"31","size_leaf_vector":"0"}},{"base_weights":[7.567069E-1,4.118908E-1,1.591459E0,1.8903683E-1,7.0738786E-1,1.077827E0,2.02541E0,2.5587682E-2,3.1285107E-1,5.0335926E-1,8.945188E-1,3.8975835E-1,1.2568711E0,1.618292E0,2.740528E0,-3.0478641E-2,1.4678773E-1,3.0575335E-2,3.8385305E-1,4.2175874E-1,8.012738E-1,1.7398597E0,8.0988896E-1,-2.589359E-1,5.6105494E-1,1.0729308E0,1.8623526E0,1.5232704E0,2.2526245E0,2.6074815E0,4.076907E0],"categories":[],"categories_nodes":[],"categories_segments":[],"categories_sizes":[],"default_left":[1,1,1,1,1,1,1,1,1,1,1,1,1,1,1,0,0,0,0,0,0,0,0,0,0,0,0,0,0,0,0],"id":22,"left_children":[1,3,5,7,9,11,13,15,17,19,21,23,25,27,29,-1,-1,-1,-1,-1,-1,-1,-1,-1,-1,-1,-1,-1,-1,-1,-1],"loss_changes":[8.070842E3,1.3067793E3,1.8248555E3,2.2897742E2,3.2530176E2,4.62229E2,1.2887969E3,3.3151657E1,1.2901953E2,9.894397E1,3.1687695E2,8.648482E1,3.298921E2,1.6732861E2,2.756289E2,0E0,0E0,0E0,0E0,0E0,0E0,0E0,0E0,0E0,0E0,0E0,0E0,0E0,0E0,0E0,0E0],"parents":[2147483647,0,0,1,1,2,2,3,3,4,4,5,5,6,6,7,7,8,8,9,9,10,10,11,11,12,12,13,13,14,14],"right_children":[2,4,6,8,10,12,14,16,18,20,22,24,26,28,30,-1,-1,-1,-1,-1,-1,-1,-1,-1,-1,-1,-1,-1,-1,-1,-1],"split_conditions":[3.7746668E0,2.55E1,3.05E1,1.2435728E0,1.8164966E0,1.75E1,5.9673347E0,1.95E1,1.35E1,1.9887277E0,2.5529999E1,1.05E1,6.525178E0,3.95E1,9.920063E0,-1.5239321E-3,7.3393867E-3,1.5287668E-3,1.9192653E-2,2.1087937E-2,4.006369E-2,8.699299E-2,4.049445E-2,-1.2946795E-2,2.8052747E-2,5.3646542E-2,9.311763E-2,7.616352E-2,1.12631224E-1,1.3037407E-1,2.0384537E-1],"split_indices":[38,0,0,45,45,0,38,0,0,38,35,0,38,0,38,0,0,0,0,0,0,0,0,0,0,0,0,0,0,0,0],"split_type":[0,0,0,0,0,0,0,0,0,0,0,0,0,0,0,0,0,0,0,0,0,0,0,0,0,0,0,0,0,0,0],"sum_hessian":[2.8041E4,1.9845E4,8.196E3,1.1314E4,8.531E3,3.755E3,4.441E3,4.877E3,6.437E3,4.083E3,4.448E3,7.76E2,2.979E3,2.832E3,1.609E3,3.335E3,1.542E3,1.294E3,5.143E3,3.207E3,8.76E2,4.03E2,4.045E3,1.62E2,6.14E2,2.287E3,6.92E2,2.466E3,3.66E2,1.466E3,1.43E2],"tree_param":{"num_deleted":"0","num_feature":"52","num_nodes":"31","size_leaf_vector":"0"}},{"base_weights":[7.1839553E-1,4.2430922E-1,1.6142085E0,2.7207196E-1,8.500517E-1,1.0200402E0,1.9497154E0,1.752945E-1,5.684357E-1,5.8225167E-1,1.0989974E0,6.150244E-1,1.3457011E0,1.5742027E0,2.4695249E0,2.9192848E-2,2.9355532E-1,1.3224359E0,5.2505815E-1,1.4326828E0,4.8868513E-1,9.631833E-1,1.4061342E0,7.425771E-2,7.966903E-1,1.8372941E0,1.0517905E0,1.287171E0,1.8878278E0,1.6548458E0,2.6662667E0],"categories":[],"categories_nodes":[],"categories_segments":[],"categories_sizes":[],"default_left":[1,1,1,1,1,1,1,1,0,1,1,1,1,1,1,0,0,0,0,0,0,0,0,0,0,0,0,0,0,0,0],"id":23,"left_children":[1,3,5,7,9,11,13,15,17,19,21,23,25,27,29,-1,-1,-1,-1,-1,-1,-1,-1,-1,-1,-1,-1,-1,-1,-1,-1],"loss_changes":[7.436669E3,1.3773875E3,1.3888594E3,4.4899268E2,3.7256567E2,3.315547E2,8.6629297E2,2.0395944E2,1.25357056E2,2.1406445E2,1.196145E2,1.10459595E2,1.9976782E2,2.308125E2,2.9499316E2,0E0,0E0,0E0,0E0,0E0,0E0,0E0,0E0,0E0,0E0,0E0,0E0,0E0,0E0,0E0,0E0],"parents":[2147483647,0,0,1,1,2,2,3,3,4,4,5,5,6,6,7,7,8,8,9,9,10,10,11,11,12,12,13,13,14,14],"right_children":[2,4,6,8,10,12,14,16,18,20,22,24,26,28,30,-1,-1,-1,-1,-1,-1,-1,-1,-1,-1,-1,-1,-1,-1,-1,-1],"split_conditions":[4.504402E0,3.05E1,2.85E1,2.1084018E0,2.3032925E0,2.15E1,5.9673347E0,1.85E1,4.9267178E0,2.1962133E1,3.65E1,1.35E1,3.046201E1,1.1375E2,1.109E2,1.4596424E-3,1.4677766E-2,6.6121794E-2,2.6252909E-2,7.1634136E-2,2.4434257E-2,4.8159163E-2,7.030671E-2,3.7128855E-3,3.9834514E-2,9.1864705E-2,5.2589525E-2,6.4358555E-2,9.439139E-2,8.2742296E-2,1.3331334E-1],"split_indices":[38,0,0,24,38,0,38,0,43,35,0,0,35,7,7,0,0,0,0,0,0,0,0,0,0,0,0,0,0,0,0],"split_type":[0,0,0,0,0,0,0,0,0,0,0,0,0,0,0,0,0,0,0,0,0,0,0,0,0,0,0,0,0,0,0],"sum_hessian":[2.823E4,2.1254E4,6.976E3,1.5657E4,5.597E3,2.519E3,4.457E3,1.1804E4,3.853E3,2.698E3,2.899E3,1.124E3,1.395E3,2.59E3,1.867E3,5.281E3,6.523E3,2.08E2,3.645E3,2.66E2,2.432E3,2.013E3,8.86E2,2.83E2,8.41E2,5.2E2,8.75E2,1.355E3,1.235E3,3.65E2,1.502E3],"tree_param":{"num_deleted":"0","num_feature":"52","num_nodes":"31","size_leaf_vector":"0"}},{"base_weights":[6.9290525E-1,4.3569738E-1,1.6415014E0,2.807636E-1,8.2095593E-1,1.5014805E0,2.759201E0,1.612667E-1,5.030324E-1,5.234827E-1,1.0142236E0,1.1075692E0,1.7420739E0,2.0646377E0,3.1542585E0,-4.63829E-4,2.5594136E-1,2.101692E-2,5.663391E-1,1.3210652E0,4.7586596E-1,1.3778585E0,8.699351E-1,3.2350105E-1,1.2027316E0,1.4274453E0,2.017412E0,2.5228555E0,6.4862543E-1,4.1901608E0,2.7478702E0],"categories":[],"categories_nodes":[],"categories_segments":[],"categories_sizes":[],"default_left":[1,1,1,0,0,1,1,1,1,0,1,1,1,1,1,0,0,0,0,0,0,0,0,0,0,0,0,0,0,0,0],"id":24,"left_children":[1,3,5,7,9,11,13,15,17,19,21,23,25,27,29,-1,-1,-1,-1,-1,-1,-1,-1,-1,-1,-1,-1,-1,-1,-1,-1],"loss_changes":[6.8443223E3,1.3172373E3,9.323623E2,4.180598E2,3.6339307E2,5.0225977E2,1.7595801E2,1.5679279E2,1.6794153E2,9.412714E1,2.0006982E2,1.5033081E2,2.8308398E2,1.5668103E2,1.6613965E2,0E0,0E0,0E0,0E0,0E0,0E0,0E0,0E0,0E0,0E0,0E0,0E0,0E0,0E0,0E0,0E0],"parents":[2147483647,0,0,1,1,2,2,3,3,4,4,5,5,6,6,7,7,8,8,9,9,10,10,11,11,12,12,13,13,14,14],"right_children":[2,4,6,8,10,12,14,16,18,20,22,24,26,28,30,-1,-1,-1,-1,-1,-1,-1,-1,-1,-1,-1,-1,-1,-1,-1,-1],"split_conditions":[4.267857E0,2.95E1,8.105556E0,1.9134183E0,1.8157408E0,3.05E1,3.35E1,1.65E1,1.25E1,2.1600285E0,1.13194685E1,1.75E1,1.1345E2,5.225E1,3.7538745E0,-2.3191451E-5,1.2797068E-2,1.0508461E-3,2.8316954E-2,6.6053264E-2,2.3793299E-2,6.8892926E-2,4.3496754E-2,1.6175052E-2,6.0136583E-2,7.137226E-2,1.008706E-1,1.2614278E-1,3.243127E-2,2.0950805E-1,1.3739352E-1],"split_indices":[20,0,20,45,45,0,0,0,0,44,43,0,7,13,37,0,0,0,0,0,0,0,0,0,0,0,0,0,0,0,0],"split_type":[0,0,0,0,0,0,0,0,0,0,0,0,0,0,0,0,0,0,0,0,0,0,0,0,0,0,0,0,0,0,0],"sum_hessian":[2.8054E4,2.2071E4,5.983E3,1.5742E4,6.329E3,5.319E3,6.64E2,1.0239E4,5.503E3,2.494E3,3.835E3,2.019E3,3.3E3,2.43E2,4.21E2,3.781E3,6.458E3,6.39E2,4.864E3,1.39E2,2.355E3,1.087E3,2.748E3,2.19E2,1.8E3,1.543E3,1.757E3,1.83E2,6E1,1.16E2,3.05E2],"tree_param":{"num_deleted":"0","num_feature":"52","num_nodes":"31","size_leaf_vector":"0"}},{"base_weights":[6.473816E-1,4.0470943E-1,1.5516156E0,2.6938432E-1,8.023366E-1,1.1586269E0,1.8987786E0,1.4204296E-1,4.7249427E-1,5.297932E-1,9.7321135E-1,6.7964625E-1,1.37683E0,1.6718794E0,2.5739412E0,4.536074E-2,2.4655394E-1,3.0014107E-1,6.069115E-1,1.4634306E0,4.9114054E-1,1.3229713E0,8.2334554E-1,1.029519E0,2.6660368E-1,9.4995904E-1,1.7304314E0,1.3629378E0,2.026402E0,2.887547E0,2.0562253E0],"categories":[],"categories_nodes":[],"categories_segments":[],"categories_sizes":[],"default_left":[1,1,1,1,0,1,0,1,1,0,1,0,1,1,1,0,0,0,0,0,0,0,0,0,0,0,0,0,0,0,0],"id":25,"left_children":[1,3,5,7,9,11,13,15,17,19,21,23,25,27,29,-1,-1,-1,-1,-1,-1,-1,-1,-1,-1,-1,-1,-1,-1,-1,-1],"loss_changes":[6.182757E3,1.195311E3,8.112031E2,4.2871118E2,2.6219043E2,2.9160205E2,4.8040137E2,1.02962296E2,1.4781018E2,7.780774E1,1.8058838E2,1.2660736E2,2.8846704E2,2.5692676E2,1.22975586E2,0E0,0E0,0E0,0E0,0E0,0E0,0E0,0E0,0E0,0E0,0E0,0E0,0E0,0E0,0E0,0E0],"parents":[2147483647,0,0,1,1,2,2,3,3,4,4,5,5,6,6,7,7,8,8,9,9,10,10,11,11,12,12,13,13,14,14],"right_children":[2,4,6,8,10,12,14,16,18,20,22,24,26,28,30,-1,-1,-1,-1,-1,-1,-1,-1,-1,-1,-1,-1,-1,-1,-1,-1],"split_conditions":[4.0194197E0,3.05E1,3.25E1,1.8172542E0,1.8164966E0,2.45E1,7.583333E0,1.95E1,2.15E1,1.9400144E0,1.1530331E1,2.5833332E1,1.1345E2,1.1375E2,1.148E2,2.268037E-3,1.2327697E-2,1.50070535E-2,3.0345574E-2,7.317153E-2,2.4557028E-2,6.614857E-2,4.1167278E-2,5.147595E-2,1.3330184E-2,4.7497954E-2,8.652157E-2,6.814689E-2,1.013201E-1,1.4437735E-1,1.0281127E-1],"split_indices":[24,0,0,24,45,0,42,0,0,44,43,50,7,7,6,0,0,0,0,0,0,0,0,0,0,0,0,0,0,0,0],"split_type":[0,0,0,0,0,0,0,0,0,0,0,0,0,0,0,0,0,0,0,0,0,0,0,0,0,0,0,0,0,0,0],"sum_hessian":[2.8178E4,2.2217E4,5.961E3,1.6577E4,5.64E3,2.798E3,3.163E3,1.019E4,6.387E3,2.175E3,3.465E3,8.77E2,1.921E3,2.37E3,7.93E2,5.294E3,4.896E3,2.8E3,3.587E3,8.5E1,2.09E3,1.037E3,2.428E3,4.74E2,4.03E2,8.72E2,1.049E3,1.269E3,1.101E3,4.91E2,3.02E2],"tree_param":{"num_deleted":"0","num_feature":"52","num_nodes":"31","size_leaf_vector":"0"}},{"base_weights":[6.194624E-1,3.567403E-1,1.4056815E0,2.1341723E-1,6.370651E-1,1.2741939E0,2.4884424E0,3.838903E-2,3.004403E-1,6.264187E-1,3.0627847E0,1.1332344E0,1.6358937E0,1.5911467E0,2.6854553E0,-1.9980347E-2,1.8280055E-1,2.037507E-1,3.8764185E-1,1.1786854E0,5.871378E-1,3.9884996E0,1.4742179E0,9.225033E-1,1.3366233E0,1.3790143E0,1.9454468E0,5.329502E-1,2.009096E0,2.460804E0,3.530155E0],"categories":[],"categories_nodes":[],"categories_segments":[],"categories_sizes":[],"default_left":[1,1,1,1,0,0,1,1,0,1,0,1,1,1,1,0,0,0,0,0,0,0,0,0,0,0,0,0,0,0,0],"id":26,"left_children":[1,3,5,7,9,11,13,15,17,19,21,23,25,27,29,-1,-1,-1,-1,-1,-1,-1,-1,-1,-1,-1,-1,-1,-1,-1,-1],"loss_changes":[5.8262686E3,8.49407E2,1.0026699E3,2.1312274E2,1.8280908E2,3.194541E2,1.3078613E2,3.9182625E1,7.872168E1,1.5383081E2,3.970749E1,1.9326807E2,1.3766602E2,6.084738E1,1.0991455E2,0E0,0E0,0E0,0E0,0E0,0E0,0E0,0E0,0E0,0E0,0E0,0E0,0E0,0E0,0E0,0E0],"parents":[2147483647,0,0,1,1,2,2,3,3,4,4,5,5,6,6,7,7,8,8,9,9,10,10,11,11,12,12,13,13,14,14],"right_children":[2,4,6,8,10,12,14,16,18,20,22,24,26,28,30,-1,-1,-1,-1,-1,-1,-1,-1,-1,-1,-1,-1,-1,-1,-1,-1],"split_conditions":[4.47033E0,2.0360389E0,7.5204167E0,1.0863132E0,4.1468973E0,5.688839E0,1.109E2,1.5652926E0,-8.5492805E-2,1.5E0,1.7583333E0,1.13649994E2,9.9845E1,8.05E0,1.0036585E1,-9.990174E-4,9.140028E-3,1.0187536E-2,1.9382093E-2,5.893427E-2,2.9356891E-2,1.9942498E-1,7.3710896E-2,4.6125166E-2,6.6831164E-2,6.895071E-2,9.7272344E-2,2.6647512E-2,1.004548E-1,1.230402E-1,1.7650776E-1],"split_indices":[38,24,24,45,48,45,7,38,48,36,47,7,8,20,24,0,0,0,0,0,0,0,0,0,0,0,0,0,0,0,0],"split_type":[0,0,0,0,0,0,0,0,0,0,0,0,0,0,0,0,0,0,0,0,0,0,0,0,0,0,0,0,0,0,0],"sum_hessian":[2.8208E4,2.1144E4,7.064E3,1.3992E4,7.152E3,6.301E3,7.63E2,4.647E3,9.345E3,7.122E3,3E1,4.537E3,1.764E3,1.39E2,6.24E2,3.31E3,1.337E3,4.433E3,4.912E3,4.71E2,6.651E3,1.8E1,1.2E1,2.231E3,2.306E3,9.67E2,7.97E2,4E1,9.9E1,4.96E2,1.28E2],"tree_param":{"num_deleted":"0","num_feature":"52","num_nodes":"31","size_leaf_vector":"0"}},{"base_weights":[5.791164E-1,3.3769384E-1,1.3501769E0,2.0419E-1,7.06107E-1,1.0120287E0,1.7581838E0,-2.5592758E-3,2.9718545E-1,4.0908346E-1,8.8763636E-1,5.0589454E-1,1.2240448E0,1.3944904E0,2.1664898E0,-1.2118145E-1,7.916641E-2,2.0473793E-1,5.115873E-1,1.1620234E0,3.126414E-1,1.2800162E0,8.0479676E-1,7.094398E-1,8.957228E-3,1.6577556E0,9.3486065E-1,1.7240573E0,1.1870192E0,2.0438309E0,3.3857944E0],"categories":[],"categories_nodes":[],"categories_segments":[],"categories_sizes":[],"default_left":[1,1,1,1,1,1,1,1,1,1,0,1,1,1,1,0,0,0,0,0,0,0,0,0,0,0,0,0,0,0,0],"id":27,"left_children":[1,3,5,7,9,11,13,15,17,19,21,23,25,27,29,-1,-1,-1,-1,-1,-1,-1,-1,-1,-1,-1,-1,-1,-1,-1,-1],"loss_changes":[5.2303994E3,1.0524551E3,9.2259766E2,3.020528E2,3.0654102E2,3.9277393E2,4.4766992E2,4.7270184E1,2.1467474E2,1.5655786E2,1.1377612E2,1.09639435E2,3.2241577E2,1.0790137E2,2.066499E2,0E0,0E0,0E0,0E0,0E0,0E0,0E0,0E0,0E0,0E0,0E0,0E0,0E0,0E0,0E0,0E0],"parents":[2147483647,0,0,1,1,2,2,3,3,4,4,5,5,6,6,7,7,8,8,9,9,10,10,11,11,12,12,13,13,14,14],"right_children":[2,4,6,8,10,12,14,16,18,20,22,24,26,28,30,-1,-1,-1,-1,-1,-1,-1,-1,-1,-1,-1,-1,-1,-1,-1,-1],"split_conditions":[4.5700636E0,3.05E1,3.25E1,1.65E1,2.043194E0,2.15E1,5.8912206E0,1.15E1,2.1203446E0,3.7172917E-1,3.367538E0,1.4829918E1,3.1257933E1,4.965E1,9.920063E0,-6.0590724E-3,3.9583207E-3,1.0236897E-2,2.5579367E-2,5.8101173E-2,1.563207E-2,6.400081E-2,4.0239837E-2,3.547199E-2,4.4786138E-4,8.288778E-2,4.674303E-2,8.620287E-2,5.9350964E-2,1.02191545E-1,1.6928972E-1],"split_indices":[38,0,0,0,38,0,38,0,24,39,44,36,35,13,38,0,0,0,0,0,0,0,0,0,0,0,0,0,0,0,0],"split_type":[0,0,0,0,0,0,0,0,0,0,0,0,0,0,0,0,0,0,0,0,0,0,0,0,0,0,0,0,0,0,0],"sum_hessian":[2.8099E4,2.14E4,6.699E3,1.5709E4,5.691E3,3.665E3,3.034E3,4.874E3,1.0835E4,2.16E3,3.531E3,1.083E3,2.582E3,1.607E3,1.427E3,1.988E3,2.886E3,7.572E3,3.263E3,2.44E2,1.916E3,6.13E2,2.918E3,7.68E2,3.15E2,1.031E3,1.551E3,6.18E2,9.89E2,1.299E3,1.28E2],"tree_param":{"num_deleted":"0","num_feature":"52","num_nodes":"31","size_leaf_vector":"0"}},{"base_weights":[5.530356E-1,2.7656057E-1,1.1601075E0,1.7416535E-1,5.963876E-1,7.4527705E-1,1.5148915E0,4.663701E-2,2.8053203E-1,4.1175494E-1,7.578593E-1,1.6062862E-1,9.0482664E-1,1.1506205E0,1.8934565E0,-1.8798588E-1,8.31712E-2,5.9311277E-1,2.2068991E-1,1.2065206E0,3.10965E-1,9.5862514E-1,5.561614E-1,-2.6462469E-1,3.2924107E-1,6.3614506E-1,1.1834471E0,1.7168382E0,1.0483932E0,1.78616E0,3.0705628E0],"categories":[],"categories_nodes":[],"categories_segments":[],"categories_sizes":[],"default_left":[1,1,1,1,1,1,1,1,1,1,0,1,1,0,1,0,0,0,0,0,0,0,0,0,0,0,0,0,0,0,0],"id":28,"left_children":[1,3,5,7,9,11,13,15,17,19,21,23,25,27,29,-1,-1,-1,-1,-1,-1,-1,-1,-1,-1,-1,-1,-1,-1,-1,-1],"loss_changes":[4.7017227E3,6.303097E2,1.2890088E3,1.9780188E2,1.3885474E2,3.769873E2,6.492627E2,5.6872097E1,1.4859644E2,1.7425232E2,1.0025647E2,6.232533E1,2.3700317E2,1.37698E2,2.8689844E2,0E0,0E0,0E0,0E0,0E0,0E0,0E0,0E0,0E0,0E0,0E0,0E0,0E0,0E0,0E0,0E0],"parents":[2147483647,0,0,1,1,2,2,3,3,4,4,5,5,6,6,7,7,8,8,9,9,10,10,11,11,12,12,13,13,14,14],"right_children":[2,4,6,8,10,12,14,16,18,20,22,24,26,28,30,-1,-1,-1,-1,-1,-1,-1,-1,-1,-1,-1,-1,-1,-1,-1,-1],"split_conditions":[3.6347103E0,3.05E1,3.05E1,1.95E1,2.043194E0,1.75E1,5.4389577E0,8.5E0,6.8548803E0,3.4683335E-1,1.4129167E1,1.15E1,5.457491E0,3.7230158E0,4.05E1,-9.399294E-3,4.1585597E-3,2.965564E-2,1.1034495E-2,6.032603E-2,1.5548251E-2,4.7931258E-2,2.780807E-2,-1.3231235E-2,1.6462054E-2,3.1807255E-2,5.917236E-2,8.584192E-2,5.2419662E-2,8.9308E-2,1.5352814E-1],"split_indices":[38,0,0,0,38,0,38,0,36,39,51,0,38,44,0,0,0,0,0,0,0,0,0,0,0,0,0,0,0,0,0],"split_type":[0,0,0,0,0,0,0,0,0,0,0,0,0,0,0,0,0,0,0,0,0,0,0,0,0,0,0,0,0,0,0],"sum_hessian":[2.8014E4,1.9249E4,8.765E3,1.4582E4,4.667E3,4.042E3,4.723E3,6.632E3,7.95E3,2.179E3,2.488E3,8.67E2,3.175E3,2.409E3,2.314E3,8.93E2,5.739E3,1.276E3,6.674E3,2.44E2,1.935E3,1.245E3,1.243E3,2.46E2,6.21E2,1.618E3,1.557E3,3.66E2,2.043E3,2.123E3,1.91E2],"tree_param":{"num_deleted":"0","num_feature":"52","num_nodes":"31","size_leaf_vector":"0"}},{"base_weights":[5.2525336E-1,3.3363643E-1,1.2648364E0,1.4578097E-1,5.165499E-1,1.1000907E0,1.8795186E0,2.3373827E-2,2.2809173E-1,4.1364318E-1,7.1205896E-1,8.602289E-1,1.32974E0,1.007258E0,2.0930142E0,2.1430675E-2,2.8953354E0,3.0429497E-1,1.2271906E-1,8.012851E-1,3.8537213E-1,9.145113E-1,5.833279E-1,6.3256013E-1,1.1853838E0,1.0491499E0,1.4705333E0,4.266454E-1,1.5702407E0,4.272576E0,2.0340745E0],"categories":[],"categories_nodes":[],"categories_segments":[],"categories_sizes":[],"default_left":[1,1,1,0,1,1,1,0,0,0,0,0,0,1,1,0,0,0,0,0,0,0,0,0,0,0,0,0,0,0,0],"id":29,"left_children":[1,3,5,7,9,11,13,15,17,19,21,23,25,27,29,-1,-1,-1,-1,-1,-1,-1,-1,-1,-1,-1,-1,-1,-1,-1,-1],"loss_changes":[3.9991045E3,7.701675E2,5.8598535E2,1.11428894E2,2.2819897E2,2.5125146E2,2.2620166E2,2.476073E1,5.3063324E1,8.125928E1,1.014989E2,1.6536804E2,9.085986E1,7.876065E1,1.177168E2,0E0,0E0,0E0,0E0,0E0,0E0,0E0,0E0,0E0,0E0,0E0,0E0,0E0,0E0,0E0,0E0],"parents":[2147483647,0,0,1,1,2,2,3,3,4,4,5,5,6,6,7,7,8,8,9,9,10,10,11,11,12,12,13,13,14,14],"right_children":[2,4,6,8,10,12,14,16,18,20,22,24,26,28,30,-1,-1,-1,-1,-1,-1,-1,-1,-1,-1,-1,-1,-1,-1,-1,-1],"split_conditions":[4.2527146E0,1.7071428E0,7.05E0,1.0973916E0,3.05E0,1.13649994E2,1.109E2,2.5E1,9.298148E0,1.8613956E0,3.7354188E0,5.583333E0,4.583333E0,8.15E0,3.527778E1,1.0715338E-3,1.4476678E-1,1.5214749E-2,6.135953E-3,4.0064257E-2,1.9268608E-2,4.5725565E-2,2.9166395E-2,3.162801E-2,5.926919E-2,5.2457493E-2,7.3526666E-2,2.133227E-2,7.8512035E-2,2.136288E-1,1.01703726E-1],"split_indices":[45,20,20,45,20,7,7,40,51,44,44,42,42,20,21,0,0,0,0,0,0,0,0,0,0,0,0,0,0,0,0],"split_type":[0,0,0,0,0,0,0,0,0,0,0,0,0,0,0,0,0,0,0,0,0,0,0,0,0,0,0,0,0,0,0],"sum_hessian":[2.8221E4,2.2415E4,5.806E3,1.1059E4,1.1356E4,4.581E3,1.225E3,4.447E3,6.612E3,7.442E3,3.914E3,2.243E3,2.338E3,2.42E2,9.83E2,4.445E3,2E0,3.836E3,2.776E3,5.04E2,6.938E3,1.519E3,2.395E3,1.321E3,9.22E2,7.84E2,1.554E3,1.2E2,1.22E2,2.4E1,9.59E2],"tree_param":{"num_deleted":"0","num_feature":"52","num_nodes":"31","size_leaf_vector":"0"}},{"base_weights":[5.010587E-1,3.1252745E-1,1.2219607E0,1.12374686E-1,4.9962044E-1,1.052876E0,1.846211E0,-9.6142374E-2,1.7886128E-1,3.9149228E-1,7.9380643E-1,4.3170515E-1,1.1535228E0,1.6943169E0,2.9024584E0,-1.9765247E-1,-3.1461664E-2,1.5739668E-2,2.7570868E-1,2.9706815E-1,5.159873E-1,6.666867E-1,1.2917435E0,2.9189E-1,1.4866802E0,1.6387316E0,1.0443918E0,1.5928152E0,3.1286461E0,1.9894091E0,3.7556527E0],"categories":[],"categories_nodes":[],"categories_segments":[],"categories_sizes":[],"default_left":[1,1,0,1,0,1,1,1,0,0,1,1,1,1,0,0,0,0,0,0,0,0,0,0,0,0,0,0,0,0,0],"id":30,"left_children":[1,3,5,7,9,11,13,15,17,19,21,23,25,27,29,-1,-1,-1,-1,-1,-1,-1,-1,-1,-1,-1,-1,-1,-1,-1,-1],"loss_changes":[3.830586E3,8.367009E2,6.14791E2,1.4970233E2,3.6706055E2,2.8708887E2,1.9466699E2,1.7136938E1,1.293331E2,9.914392E1,1.9555164E2,9.440954E1,2.0787012E2,1.537063E2,1.1327478E2,0E0,0E0,0E0,0E0,0E0,0E0,0E0,0E0,0E0,0E0,0E0,0E0,0E0,0E0,0E0,0E0],"parents":[2147483647,0,0,1,1,2,2,3,3,4,4,5,5,6,6,7,7,8,8,9,9,10,10,11,11,12,12,13,13,14,14],"right_children":[2,4,6,8,10,12,14,16,18,20,22,24,26,28,30,-1,-1,-1,-1,-1,-1,-1,-1,-1,-1,-1,-1,-1,-1,-1,-1],"split_conditions":[4.1023026E0,2.35E1,7.583333E0,1.25E1,3.1666665E0,2.35E1,3.95E1,8.5E0,1.2420204E0,1.8017094E0,3.65E1,5.7697725E-1,3.044077E1,1.13726845E1,8.833334E0,-9.882624E-3,-1.5730832E-3,7.869834E-4,1.3785434E-2,1.4853408E-2,2.5799364E-2,3.3334337E-2,6.4587176E-2,1.45945E-2,7.433401E-2,8.193658E-2,5.221959E-2,7.964076E-2,1.5643232E-1,9.947046E-2,1.8778263E-1],"split_indices":[24,0,42,0,42,0,0,0,45,45,0,39,35,24,42,0,0,0,0,0,0,0,0,0,0,0,0,0,0,0,0],"split_type":[0,0,0,0,0,0,0,0,0,0,0,0,0,0,0,0,0,0,0,0,0,0,0,0,0,0,0,0,0,0,0],"sum_hessian":[2.8186E4,2.2344E4,5.842E3,1.0796E4,1.1548E4,4.599E3,1.243E3,2.61E3,8.186E3,8.446E3,3.102E3,6.42E2,3.957E3,1.089E3,1.54E2,1.015E3,1.595E3,3.05E3,5.136E3,4.805E3,3.641E3,2.473E3,6.29E2,5.68E2,7.4E1,7.24E2,3.233E3,1.019E3,7E1,7.6E1,7.8E1],"tree_param":{"num_deleted":"0","num_feature":"52","num_nodes":"31","size_leaf_vector":"0"}},{"base_weights":[4.7996947E-1,2.5210232E-1,1.0179636E0,7.778135E-2,4.2042542E-1,5.822154E-1,1.2729397E0,-7.927896E-2,1.2911697E-1,3.011187E-1,5.957698E-1,1.3367354E-2,7.097455E-1,1.1264977E0,2.2293673E0,-1.7536408E-1,-2.0111179E-2,3.1260803E-1,7.133115E-2,7.846778E-1,2.2182828E-1,4.6410438E-1,8.554944E-1,7.1121997E-1,-6.739082E-2,4.4040573E-1,9.435246E-1,1.0215073E0,1.6648407E0,9.415077E-1,2.3684826E0],"categories":[],"categories_nodes":[],"categories_segments":[],"categories_sizes":[],"default_left":[1,1,1,1,1,1,1,1,1,1,1,1,1,1,1,0,0,0,0,0,0,0,0,0,0,0,0,0,0,0,0],"id":31,"left_children":[1,3,5,7,9,11,13,15,17,19,21,23,25,27,29,-1,-1,-1,-1,-1,-1,-1,-1,-1,-1,-1,-1,-1,-1,-1,-1],"loss_changes":[3.4535044E3,5.807091E2,9.3054297E2,7.841279E1,2.1046167E2,2.2459045E2,7.379912E2,1.3618075E1,7.768843E1,2.2964551E2,1.3898889E2,3.205888E1,1.5882544E2,2.5756104E2,1.2336182E2,0E0,0E0,0E0,0E0,0E0,0E0,0E0,0E0,0E0,0E0,0E0,0E0,0E0,0E0,0E0,0E0],"parents":[2147483647,0,0,1,1,2,2,3,3,4,4,5,5,6,6,7,7,8,8,9,9,10,10,11,11,12,12,13,13,14,14],"right_children":[2,4,6,8,10,12,14,16,18,20,22,24,26,28,30,-1,-1,-1,-1,-1,-1,-1,-1,-1,-1,-1,-1,-1,-1,-1,-1],"split_conditions":[3.6908603E0,2.35E1,2.85E1,1.25E1,2.3032925E0,1.55E1,7.5953135E0,8.5E0,2.1538252E1,2.2152977E1,3.35E1,1.1416666E1,5.5024576E0,3.85E1,1.0975E2,-8.768204E-3,-1.005559E-3,1.5630402E-2,3.5665575E-3,3.923389E-2,1.1091414E-2,2.3205219E-2,4.277472E-2,3.5561E-2,-3.3695411E-3,2.2020286E-2,4.717623E-2,5.1075365E-2,8.324204E-2,4.7075387E-2,1.1842413E-1],"split_indices":[38,0,0,0,38,0,38,0,35,35,0,50,38,0,7,0,0,0,0,0,0,0,0,0,0,0,0,0,0,0,0],"split_type":[0,0,0,0,0,0,0,0,0,0,0,0,0,0,0,0,0,0,0,0,0,0,0,0,0,0,0,0,0,0,0],"sum_hessian":[2.8172E4,1.9791E4,8.381E3,9.723E3,1.0068E4,3.095E3,5.286E3,2.395E3,7.328E3,5.993E3,4.075E3,5.67E2,2.528E3,4.586E3,7E2,9.12E2,1.483E3,1.754E3,5.574E3,8.43E2,5.15E3,2.706E3,1.369E3,5.8E1,5.09E2,1.176E3,1.352E3,3.84E3,7.46E2,6.9E1,6.31E2],"tree_param":{"num_deleted":"0","num_feature":"52","num_nodes":"31","size_leaf_vector":"0"}},{"base_weights":[4.526074E-1,2.1801084E-1,9.4861186E-1,8.387147E-2,4.0262327E-1,6.782845E-1,1.2959262E0,-5.447129E-2,1.5204392E-1,3.2358208E-1,6.172279E-1,5.4394513E-1,1.142232E0,1.0178493E0,1.7414601E0,-8.928298E-2,2.3098148E-1,3.3159754E-1,8.344238E-2,5.763347E-1,2.5067207E-1,5.802925E-1,1.7656912E0,2.2601873E-1,6.735287E-1,2.8191745E-1,1.3437524E0,8.018143E-1,1.303075E0,1.5835481E0,2.5688484E0],"categories":[],"categories_nodes":[],"categories_segments":[],"categories_sizes":[],"default_left":[1,1,1,1,1,1,1,1,1,1,1,1,1,1,1,0,0,0,0,0,0,0,0,0,0,0,0,0,0,0,0],"id":32,"left_children":[1,3,5,7,9,11,13,15,17,19,21,23,25,27,29,-1,-1,-1,-1,-1,-1,-1,-1,-1,-1,-1,-1,-1,-1,-1,-1],"loss_changes":[3.2787275E3,4.737472E2,8.48624E2,1.04524445E2,1.3636621E2,3.1662012E2,4.8871826E2,3.6380447E1,9.141858E1,1.0832385E2,9.0854675E1,1.625387E2,1.9761072E2,1.4930493E2,1.9452686E2,0E0,0E0,0E0,0E0,0E0,0E0,0E0,0E0,0E0,0E0,0E0,0E0,0E0,0E0,0E0,0E0],"parents":[2147483647,0,0,1,1,2,2,3,3,4,4,5,5,6,6,7,7,8,8,9,9,10,10,11,11,12,12,13,13,14,14],"right_children":[2,4,6,8,10,12,14,16,18,20,22,24,26,28,30,-1,-1,-1,-1,-1,-1,-1,-1,-1,-1,-1,-1,-1,-1,-1,-1],"split_conditions":[3.5854168E0,2.55E1,3.25E1,1.0890872E0,3.45E1,6.525178E0,5.7818465E0,2.0138888E0,2.3199263E1,2.6854416E1,2.509543E0,2.15E1,1.75E1,1.143E2,3.95E1,-4.464149E-3,1.1549074E-2,1.6579878E-2,4.1721193E-3,2.8816735E-2,1.2533604E-2,2.9014627E-2,8.828456E-2,1.1300936E-2,3.3676434E-2,1.4095873E-2,6.718762E-2,4.0090717E-2,6.515375E-2,7.91774E-2,1.2844242E-1],"split_indices":[38,0,0,45,0,38,38,38,35,35,48,0,0,7,0,0,0,0,0,0,0,0,0,0,0,0,0,0,0,0,0],"split_type":[0,0,0,0,0,0,0,0,0,0,0,0,0,0,0,0,0,0,0,0,0,0,0,0,0,0,0,0,0,0,0],"sum_hessian":[2.8178E4,1.9131E4,9.047E3,1.1081E4,8.05E3,5.089E3,3.958E3,3.658E3,7.423E3,5.885E3,2.165E3,3.948E3,1.141E3,2.439E3,1.519E3,3.261E3,3.97E2,2.051E3,5.372E3,1.316E3,4.569E3,2.099E3,6.6E1,1.144E3,2.804E3,2.17E2,9.24E2,1.39E3,1.049E3,1.278E3,2.41E2],"tree_param":{"num_deleted":"0","num_feature":"52","num_nodes":"31","size_leaf_vector":"0"}},{"base_weights":[4.3476868E-1,2.0249145E-1,8.808094E-1,1.2817049E-1,4.318774E-1,6.991057E-1,1.3464775E0,-1.3329121E-2,1.9400184E-1,1.3339603E0,4.015933E-1,5.749579E-1,1.0443385E0,1.2130094E0,2.2578952E0,7.5004387E-1,-1.9725014E-2,4.2336592E-1,1.488624E-1,8.2626545E-1,2.0771954E0,2.7709162E-1,5.436244E-1,8.8795054E-1,4.8219112E-1,-3.2999727E-1,1.0981615E0,1.8855315E0,1.1114436E0,2.7124875E0,1.2879626E0],"categories":[],"categories_nodes":[],"categories_segments":[],"categories_sizes":[],"default_left":[1,1,1,1,1,1,0,1,1,1,0,0,1,0,1,0,0,0,0,0,0,0,0,0,0,0,0,0,0,0,0],"id":33,"left_children":[1,3,5,7,9,11,13,15,17,19,21,23,25,27,29,-1,-1,-1,-1,-1,-1,-1,-1,-1,-1,-1,-1,-1,-1,-1,-1],"loss_changes":[2.9223154E3,3.1618842E2,8.163413E2,1.305259E2,1.2346411E2,2.9727588E2,3.2691943E2,2.1741705E1,9.894623E1,5.3752167E1,7.753131E1,1.4805835E2,1.3624707E2,1.5951465E2,1.4862512E2,0E0,0E0,0E0,0E0,0E0,0E0,0E0,0E0,0E0,0E0,0E0,0E0,0E0,0E0,0E0,0E0],"parents":[2147483647,0,0,1,1,2,2,3,3,4,4,5,5,6,6,7,7,8,8,9,9,10,10,11,11,12,12,13,13,14,14],"right_children":[2,4,6,8,10,12,14,16,18,20,22,24,26,28,30,-1,-1,-1,-1,-1,-1,-1,-1,-1,-1,-1,-1,-1,-1,-1,-1],"split_conditions":[3.05E0,2.95E1,3.55E1,1.0973916E0,1.7078252E0,5.6833334E0,8.5E0,1E-1,5.3693957E0,1.1789474E0,1.7734604E0,2.8911066E0,1.75E1,1.2773504E1,4.802003E-1,3.7502196E-2,-9.862507E-4,2.1168297E-2,7.4431202E-3,4.1313272E-2,1.03859775E-1,1.3854581E-2,2.7181221E-2,4.439753E-2,2.4109555E-2,-1.6499864E-2,5.4908074E-2,9.427658E-2,5.5572182E-2,1.3562438E-1,6.439813E-2],"split_indices":[20,0,0,24,44,20,42,19,22,45,45,44,0,43,39,0,0,0,0,0,0,0,0,0,0,0,0,0,0,0,0],"split_type":[0,0,0,0,0,0,0,0,0,0,0,0,0,0,0,0,0,0,0,0,0,0,0,0,0,0,0,0,0,0,0],"sum_hessian":[2.8207E4,1.8549E4,9.658E3,1.4011E4,4.538E3,6.949E3,2.709E3,4.449E3,9.562E3,1.46E2,4.392E3,5.113E3,1.836E3,2.365E3,3.44E2,3.6E1,4.413E3,1.571E3,7.991E3,8.8E1,5.8E1,2.342E3,2.05E3,1.167E3,3.946E3,6.9E1,1.767E3,3.08E2,2.057E3,2.33E2,1.11E2],"tree_param":{"num_deleted":"0","num_feature":"52","num_nodes":"31","size_leaf_vector":"0"}},{"base_weights":[4.0604553E-1,2.2794947E-1,9.2438304E-1,1.2149244E-1,4.480445E-1,6.848324E-1,1.3193945E0,3.5805527E-2,2.6534563E-1,1.9163743E-1,5.7812524E-1,5.432339E-1,1.1771328E0,1.0051666E0,1.7209431E0,1.7764066E-1,-3.0017314E-2,6.898879E-1,2.1975891E-1,-1.24444954E-1,2.7154115E-1,7.92359E-1,4.4909424E-1,1.2544218E-1,6.572698E-1,3.281595E-1,1.3561692E0,9.690458E-1,2.477264E0,4.4471264E0,1.6420404E0],"categories":[],"categories_nodes":[],"categories_segments":[],"categories_sizes":[],"default_left":[1,1,1,1,1,1,1,1,1,1,1,1,1,1,1,0,0,0,0,0,0,0,0,0,0,0,0,0,0,0,0],"id":34,"left_children":[1,3,5,7,9,11,13,15,17,19,21,23,25,27,29,-1,-1,-1,-1,-1,-1,-1,-1,-1,-1,-1,-1,-1,-1,-1,-1],"loss_changes":[2.604794E3,4.9208325E2,6.819126E2,1.7450674E2,2.2826135E2,3.126328E2,3.4185205E2,8.285292E1,1.0213156E2,5.8274498E1,1.2519763E2,1.6628784E2,1.5200818E2,7.895471E1,2.49531E2,0E0,0E0,0E0,0E0,0E0,0E0,0E0,0E0,0E0,0E0,0E0,0E0,0E0,0E0,0E0,0E0],"parents":[2147483647,0,0,1,1,2,2,3,3,4,4,5,5,6,6,7,7,8,8,9,9,10,10,11,11,12,12,13,13,14,14],"right_children":[2,4,6,8,10,12,14,16,18,20,22,24,26,28,30,-1,-1,-1,-1,-1,-1,-1,-1,-1,-1,-1,-1,-1,-1,-1,-1],"split_conditions":[3.8333335E0,2.5156662E0,3.45E1,2.55E1,2.15E1,6.525178E0,5.654115E0,2.2152977E1,2.2152977E1,1.15E1,1.088057E1,2.35E1,2.05E1,4.45E1,2.9830643E1,8.882034E-3,-1.5008658E-3,3.4494396E-2,1.0987946E-2,-6.2222476E-3,1.3577058E-2,3.9617952E-2,2.2454713E-2,6.2721088E-3,3.286349E-2,1.6407976E-2,6.7808464E-2,4.845229E-2,1.238632E-1,2.2235632E-1,8.210202E-2],"split_indices":[42,38,0,0,0,38,38,35,35,0,22,0,0,0,35,0,0,0,0,0,0,0,0,0,0,0,0,0,0,0,0],"split_type":[0,0,0,0,0,0,0,0,0,0,0,0,0,0,0,0,0,0,0,0,0,0,0,0,0,0,0,0,0,0,0],"sum_hessian":[2.8218E4,2.1003E4,7.215E3,1.4157E4,6.846E3,4.493E3,2.722E3,8.873E3,5.284E3,2.305E3,4.541E3,3.491E3,1.002E3,1.529E3,1.193E3,2.812E3,6.061E3,5.11E2,4.773E3,4.65E2,1.84E3,1.705E3,2.836E3,7.49E2,2.742E3,1.75E2,8.27E2,1.494E3,3.5E1,3.2E1,1.161E3],"tree_param":{"num_deleted":"0","num_feature":"52","num_nodes":"31","size_leaf_vector":"0"}},{"base_weights":[3.910721E-1,2.1009776E-1,9.150919E-1,1.21270515E-1,4.1135558E-1,7.930065E-1,1.6820188E0,3.9111756E-2,2.480984E-1,3.6180732E-1,7.6282763E-1,4.8624295E-1,9.0343696E-1,8.5750633E-1,1.8785361E0,1.625277E-1,-1.8773744E-2,1.3582905E-1,3.4365854E-1,2.2604877E-1,4.7845748E-1,9.683924E-1,3.1132215E-1,3.87966E-1,1.1425183E0,7.1651864E-1,1.1120338E0,1.6438838E0,4.0300286E-1,2.657069E-1,2.0213888E0],"categories":[],"categories_nodes":[],"categories_segments":[],"categories_sizes":[],"default_left":[1,1,1,1,0,1,1,1,0,1,1,0,1,1,0,0,0,0,0,0,0,0,0,0,0,0,0,0,0,0,0],"id":35,"left_children":[1,3,5,7,9,11,13,15,17,19,21,23,25,27,29,-1,-1,-1,-1,-1,-1,-1,-1,-1,-1,-1,-1,-1,-1,-1,-1],"loss_changes":[2.6601895E3,3.7274298E2,6.728999E2,1.5075757E2,1.10917725E2,2.1006665E2,1.5847583E2,6.27416E1,6.09769E1,8.8543274E1,7.283563E1,1.0578287E2,1.7731201E2,6.7960495E1,1.8308936E2,0E0,0E0,0E0,0E0,0E0,0E0,0E0,0E0,0E0,0E0,0E0,0E0,0E0,0E0,0E0,0E0],"parents":[2147483647,0,0,1,1,2,2,3,3,4,4,5,5,6,6,7,7,8,8,9,9,10,10,11,11,12,12,13,13,14,14],"right_children":[2,4,6,8,10,12,14,16,18,20,22,24,26,28,30,-1,-1,-1,-1,-1,-1,-1,-1,-1,-1,-1,-1,-1,-1,-1,-1],"split_conditions":[4.3673296E0,2.1637855E0,7.5953135E0,1.8154762E0,4.833333E0,1.119E2,1.109E2,6.7575026E0,-7.0925556E-2,1.1345E2,6.1348486E0,1.960777E0,5.557292E0,1.9642006E1,3.1666665E0,8.126385E-3,-9.386872E-4,6.7914524E-3,1.7182928E-2,1.1302439E-2,2.3922874E-2,4.841962E-2,1.5566108E-2,1.93983E-2,5.7125915E-2,3.5825934E-2,5.5601694E-2,8.2194194E-2,2.0150144E-2,1.3285345E-2,1.0106944E-1],"split_indices":[38,24,38,38,42,7,7,36,48,7,23,48,38,36,42,0,0,0,0,0,0,0,0,0,0,0,0,0,0,0,0],"split_type":[0,0,0,0,0,0,0,0,0,0,0,0,0,0,0,0,0,0,0,0,0,0,0,0,0,0,0,0,0,0,0],"sum_hessian":[2.8052E4,2.0852E4,7.2E3,1.4468E4,6.384E3,6.213E3,9.87E2,8.781E3,5.687E3,5.597E3,7.87E2,1.646E3,4.567E3,1.91E2,7.96E2,2.803E3,5.978E3,2.616E3,3.071E3,2.588E3,3.009E3,5.4E2,2.47E2,1.433E3,2.13E2,2.411E3,2.156E3,6.9E1,1.22E2,6.5E1,7.31E2],"tree_param":{"num_deleted":"0","num_feature":"52","num_nodes":"31","size_leaf_vector":"0"}},{"base_weights":[3.724656E-1,1.8012649E-1,7.8117424E-1,8.076952E-2,3.6767364E-1,5.317149E-1,1.1008608E0,-5.0450303E-2,1.4007327E-1,7.254961E-1,2.9617214E-1,1.5763141E-1,6.901877E-1,8.553579E-1,1.4887997E0,7.342432E-2,-9.309227E-2,3.1627142E-1,7.8318454E-2,3.0120328E-1,1.0076894E0,1.3572006E-1,4.1773152E-1,4.0246364E-1,-1.1630692E-1,1.1061082E0,4.9483234E-1,7.415081E-1,1.2418015E0,2.9202268E0,1.4066533E0],"categories":[],"categories_nodes":[],"categories_segments":[],"categories_sizes":[],"default_left":[1,1,1,1,1,1,1,1,1,1,1,1,1,1,1,0,0,0,0,0,0,0,0,0,0,0,0,0,0,0,0],"id":36,"left_children":[1,3,5,7,9,11,13,15,17,19,21,23,25,27,29,-1,-1,-1,-1,-1,-1,-1,-1,-1,-1,-1,-1,-1,-1,-1,-1],"loss_changes":[2.2120422E3,3.5657153E2,7.1755273E2,9.736549E1,1.6933588E2,2.9985828E2,3.7454395E2,2.0581226E1,9.373755E1,1.3176147E2,1.07705414E2,1.011197E2,2.882234E2,1.05506714E2,1.7556445E2,0E0,0E0,0E0,0E0,0E0,0E0,0E0,0E0,0E0,0E0,0E0,0E0,0E0,0E0,0E0,0E0],"parents":[2147483647,0,0,1,1,2,2,3,3,4,4,5,5,6,6,7,7,8,8,9,9,10,10,11,11,12,12,13,13,14,14],"right_children":[2,4,6,8,10,12,14,16,18,20,22,24,26,28,30,-1,-1,-1,-1,-1,-1,-1,-1,-1,-1,-1,-1,-1,-1,-1,-1],"split_conditions":[3.5854168E0,2.75E1,3.25E1,1.0890872E0,2.6854416E1,2.15E1,5.7818465E0,6.1E0,2.3199263E1,1.3506757E0,2.043194E0,2.9830643E1,3.0406761E1,3.85E1,2.994059E1,3.6712158E-3,-4.654614E-3,1.5813572E-2,3.9159227E-3,1.5060164E-2,5.038447E-2,6.7860032E-3,2.0886576E-2,2.0123182E-2,-5.8153463E-3,5.530541E-2,2.4741618E-2,3.7075408E-2,6.2090077E-2,1.4601134E-1,7.033267E-2],"split_indices":[38,0,0,45,35,0,38,27,35,24,38,35,35,0,35,0,0,0,0,0,0,0,0,0,0,0,0,0,0,0,0],"split_type":[0,0,0,0,0,0,0,0,0,0,0,0,0,0,0,0,0,0,0,0,0,0,0,0,0,0,0,0,0,0,0],"sum_hessian":[2.814E4,1.9136E4,9.004E3,1.251E4,6.626E3,5.059E3,3.945E3,3.894E3,8.616E3,1.102E3,5.524E3,1.506E3,3.553E3,2.418E3,1.527E3,9.97E2,2.897E3,2.235E3,6.381E3,4.41E2,6.61E2,2.382E3,3.142E3,7.95E2,7.11E2,1.134E3,2.419E3,1.87E3,5.48E2,8.1E1,1.446E3],"tree_param":{"num_deleted":"0","num_feature":"52","num_nodes":"31","size_leaf_vector":"0"}},{"base_weights":[3.4883758E-1,1.7260809E-1,7.397712E-1,1.0521508E-1,4.2820394E-1,5.686939E-1,1.2053249E0,-2.9751774E-2,1.6379905E-1,9.300869E-1,3.8658968E-1,5.007274E-1,1.2275522E0,9.5922035E-1,1.5840768E0,-1.3973702E-1,2.3222608E-2,1.6037144E-1,4.2305527E0,7.3637056E-1,1.9984066E0,2.564435E-1,5.4671824E-1,1.3762036E-1,6.0847896E-1,1.3761816E0,1.8663935E-1,7.9133964E-1,1.4889433E0,1.4500694E0,2.7275772E0],"categories":[],"categories_nodes":[],"categories_segments":[],"categories_sizes":[],"default_left":[1,1,1,1,0,1,1,1,1,1,1,1,1,0,1,0,0,0,0,0,0,0,0,0,0,0,0,0,0,0,0],"id":37,"left_children":[1,3,5,7,9,11,13,15,17,19,21,23,25,27,29,-1,-1,-1,-1,-1,-1,-1,-1,-1,-1,-1,-1,-1,-1,-1,-1],"loss_changes":[1.9437856E3,3.3498853E2,6.9756885E2,1.2171568E2,8.439374E1,2.8656104E2,2.1799634E2,2.7154274E1,1.4894553E2,6.2683258E1,7.798938E1,2.2743018E2,9.241467E1,1.2599194E2,1.3794238E2,0E0,0E0,0E0,0E0,0E0,0E0,0E0,0E0,0E0,0E0,0E0,0E0,0E0,0E0,0E0,0E0],"parents":[2147483647,0,0,1,1,2,2,3,3,4,4,5,5,6,6,7,7,8,8,9,9,10,10,11,11,12,12,13,13,14,14],"right_children":[2,4,6,8,10,12,14,16,18,20,22,24,26,28,30,-1,-1,-1,-1,-1,-1,-1,-1,-1,-1,-1,-1,-1,-1,-1,-1],"split_conditions":[3.646673E0,3.15E1,3.55E1,1.65E1,2.25E1,7.5953135E0,5.8912206E0,1.05E1,5.909091E0,2.2769885E0,2.3032925E0,2.15E1,3.5950405E1,1.1804299E0,4.15E1,-6.9868513E-3,1.1611305E-3,8.018572E-3,2.1152763E-1,3.681853E-2,9.992033E-2,1.2822175E-2,2.7335912E-2,6.881018E-3,3.0423949E-2,6.8809085E-2,9.331968E-3,3.9566983E-2,7.444717E-2,7.250347E-2,1.3637887E-1],"split_indices":[38,0,0,0,50,38,38,0,45,24,38,0,35,47,0,0,0,0,0,0,0,0,0,0,0,0,0,0,0,0,0],"split_type":[0,0,0,0,0,0,0,0,0,0,0,0,0,0,0,0,0,0,0,0,0,0,0,0,0,0,0,0,0,0,0],"sum_hessian":[2.8215E4,1.9449E4,8.766E3,1.5392E4,4.057E3,6.412E3,2.354E3,4.659E3,1.0733E4,3.09E2,3.748E3,5.814E3,5.98E2,1.429E3,9.25E2,1.514E3,3.145E3,1.0725E4,8E0,2.63E2,4.6E1,2.069E3,1.679E3,1.331E3,4.483E3,5.23E2,7.5E1,1.087E3,3.42E2,8.3E2,9.5E1],"tree_param":{"num_deleted":"0","num_feature":"52","num_nodes":"31","size_leaf_vector":"0"}},{"base_weights":[3.373574E-1,1.9294968E-1,8.107292E-1,7.307649E-2,3.3249298E-1,7.036174E-1,1.4268627E0,-3.9716624E-2,1.3093033E-1,3.2622823E-1,1.8751736E0,5.309549E-1,8.989192E-1,1.3348533E0,3.3815122E0,1.3400365E-1,-9.011271E-2,3.1304476E-1,8.628419E-2,2.5667652E-1,4.33809E-1,2.446636E0,6.3912666E-1,3.977895E-1,8.187018E-1,5.641222E-1,1.0188416E0,6.9955015E-1,1.4772507E0,2.8793664E0,7.5575914E0],"categories":[],"categories_nodes":[],"categories_segments":[],"categories_sizes":[],"default_left":[1,1,1,1,0,1,0,1,0,0,0,0,0,1,1,0,0,0,0,0,0,0,0,0,0,0,0,0,0,0,0],"id":38,"left_children":[1,3,5,7,9,11,13,15,17,19,21,23,25,27,29,-1,-1,-1,-1,-1,-1,-1,-1,-1,-1,-1,-1,-1,-1,-1,-1],"loss_changes":[1.9192151E3,3.5988458E2,4.3212207E2,7.553804E1,9.547266E1,1.8812598E2,1.7011682E2,3.437475E1,6.2181046E1,7.398706E1,2.669046E1,1.1351697E2,1.0473779E2,8.300903E1,6.840994E1,0E0,0E0,0E0,0E0,0E0,0E0,0E0,0E0,0E0,0E0,0E0,0E0,0E0,0E0,0E0,0E0],"parents":[2147483647,0,0,1,1,2,2,3,3,4,4,5,5,6,6,7,7,8,8,9,9,10,10,11,11,12,12,13,13,14,14],"right_children":[2,4,6,8,10,12,14,16,18,20,22,24,26,28,30,-1,-1,-1,-1,-1,-1,-1,-1,-1,-1,-1,-1,-1,-1,-1,-1],"split_conditions":[4.6130304E0,1.8333333E0,7.5953135E0,1.0283703E0,4.1468973E0,1.1375E2,1.1498775E1,5.35E0,5.936492E0,2.751033E0,2.215869E0,7.1196485E-1,3.8333335E0,5.2E1,3.8E1,6.700183E-3,-4.5056357E-3,1.5652237E-2,4.31421E-3,1.2833826E-2,2.169045E-2,1.223318E-1,3.1956334E-2,1.9889476E-2,4.093509E-2,2.820611E-2,5.0942082E-2,3.4977507E-2,7.386254E-2,1.4396833E-1,3.778796E-1],"split_indices":[38,42,38,45,48,7,45,27,43,45,47,48,42,33,50,0,0,0,0,0,0,0,0,0,0,0,0,0,0,0,0],"split_type":[0,0,0,0,0,0,0,0,0,0,0,0,0,0,0,0,0,0,0,0,0,0,0,0,0,0,0,0,0,0,0],"sum_hessian":[2.8077E4,2.1515E4,6.562E3,1.1574E4,9.941E3,5.592E3,9.7E2,3.924E3,7.65E3,9.902E3,3.9E1,2.97E3,2.622E3,9.28E2,4.2E1,8.82E2,3.042E3,1.505E3,6.145E3,6.016E3,3.886E3,2.6E1,1.3E1,2.032E3,9.38E2,6.93E2,1.929E3,1.71E2,7.57E2,3.9E1,3E0],"tree_param":{"num_deleted":"0","num_feature":"52","num_nodes":"31","size_leaf_vector":"0"}},{"base_weights":[3.116447E-1,1.8932149E-1,7.811155E-1,3.4280654E-2,3.1357476E-1,5.710572E-1,1.0906248E0,-1.0108321E-1,9.721177E-2,1.7499633E-1,4.7126198E-1,4.7776425E-1,1.2461238E0,9.655485E-1,1.6814511E0,-2.2717668E-1,-4.2482246E-2,1.8154708E-1,-5.9589572E-2,5.12571E-1,1.24736354E-1,6.5461653E-1,3.3608374E-1,2.0216845E-1,7.058134E-1,1.1810403E0,4.079809E0,1.567538E0,8.7821776E-1,-3.1960988E-1,1.8073498E0],"categories":[],"categories_nodes":[],"categories_segments":[],"categories_sizes":[],"default_left":[1,1,1,1,1,1,0,1,1,1,1,1,1,0,1,0,0,0,0,0,0,0,0,0,0,0,0,0,0,0,0],"id":39,"left_children":[1,3,5,7,9,11,13,15,17,19,21,23,25,27,29,-1,-1,-1,-1,-1,-1,-1,-1,-1,-1,-1,-1,-1,-1,-1,-1],"loss_changes":[1.6107991E3,4.2871698E2,3.7633423E2,8.4361E1,2.698777E2,2.1705981E2,1.7152051E2,2.3214603E1,8.940431E1,1.1152469E2,1.4299084E2,1.9079376E2,7.2456116E1,1.004032E2,1.0336536E2,0E0,0E0,0E0,0E0,0E0,0E0,0E0,0E0,0E0,0E0,0E0,0E0,0E0,0E0,0E0,0E0],"parents":[2147483647,0,0,1,1,2,2,3,3,4,4,5,5,6,6,7,7,8,8,9,9,10,10,11,11,12,12,13,13,14,14],"right_children":[2,4,6,8,10,12,14,16,18,20,22,24,26,28,30,-1,-1,-1,-1,-1,-1,-1,-1,-1,-1,-1,-1,-1,-1,-1,-1],"split_conditions":[4.1023026E0,2.25E1,3.45E1,1.35E1,2.3403678E0,7.845816E0,8.416666E0,8.5E0,2.1833332E1,2.2152977E1,1.1319574E1,1.1345E2,3.65E1,1.5637218E1,5.3E1,-1.1358834E-2,-2.1241123E-3,9.077354E-3,-2.9794786E-3,2.562855E-2,6.2368177E-3,3.273083E-2,1.6804187E-2,1.01084225E-2,3.529067E-2,5.9052017E-2,2.0399046E-1,7.8376904E-2,4.3910887E-2,-1.5980495E-2,9.036749E-2],"split_indices":[24,0,0,0,38,38,42,0,50,35,22,7,14,43,33,0,0,0,0,0,0,0,0,0,0,0,0,0,0,0,0],"split_type":[0,0,0,0,0,0,0,0,0,0,0,0,0,0,0,0,0,0,0,0,0,0,0,0,0,0,0,0,0,0,0],"sum_hessian":[2.8051E4,2.2254E4,5.797E3,9.901E3,1.2353E4,3.455E3,2.342E3,3.142E3,6.759E3,6.576E3,5.777E3,3.037E3,4.18E2,1.935E3,4.07E2,9.96E2,2.146E3,4.395E3,2.364E3,8.51E2,5.725E3,2.45E3,3.327E3,1.376E3,1.661E3,4.1E2,8E0,2.43E2,1.692E3,2.4E1,3.83E2],"tree_param":{"num_deleted":"0","num_feature":"52","num_nodes":"31","size_leaf_vector":"0"}},{"base_weights":[2.97088E-1,1.42344E-1,6.2404954E-1,9.884653E-2,4.8296863E-1,4.748949E-1,1.0344446E0,-4.5159324E-3,1.7785357E-1,2.685035E-1,6.712282E-1,-5.6026476E-3,5.469996E-1,9.537252E-1,2.4483902E0,3.555737E-2,-1.3490765E-1,3.561228E-1,9.689058E-2,1.9602429E0,2.360595E-1,2.077747E0,6.084207E-1,-4.6628872E-1,1.2729585E-1,9.0501595E-1,3.9911887E-1,1.8898818E0,8.895608E-1,9.425821E-1,2.9509583E0],"categories":[],"categories_nodes":[],"categories_segments":[],"categories_sizes":[],"default_left":[1,1,1,1,1,1,1,0,1,0,0,1,1,1,1,0,0,0,0,0,0,0,0,0,0,0,0,0,0,0,0],"id":40,"left_children":[1,3,5,7,9,11,13,15,17,19,21,23,25,27,29,-1,-1,-1,-1,-1,-1,-1,-1,-1,-1,-1,-1,-1,-1,-1,-1],"loss_changes":[1.4297351E3,2.8417355E2,5.551941E2,1.3892696E2,8.7514465E1,2.3074622E2,2.737522E2,3.8519943E1,1.3913052E2,5.5357124E1,1.0085681E2,5.332466E1,3.0623572E2,1.3587427E2,9.5598694E1,0E0,0E0,0E0,0E0,0E0,0E0,0E0,0E0,0E0,0E0,0E0,0E0,0E0,0E0,0E0,0E0],"parents":[2147483647,0,0,1,1,2,2,3,3,4,4,5,5,6,6,7,7,8,8,9,9,10,10,11,11,12,12,13,13,14,14],"right_children":[2,4,6,8,10,12,14,16,18,20,22,24,26,28,30,-1,-1,-1,-1,-1,-1,-1,-1,-1,-1,-1,-1,-1,-1,-1,-1],"split_conditions":[3.5854168E0,3.45E1,3.55E1,2.05E1,2.1666665E0,1.75E1,9.398275E0,2.2166668E1,2.7255291E1,4.6925E0,2.4166668E1,1.05E1,3.0406761E1,2.831761E0,2.8010886E0,1.7778686E-3,-6.7453827E-3,1.780614E-2,4.844529E-3,9.801214E-2,1.1802975E-2,1.0388736E-1,3.0421037E-2,-2.3314437E-2,6.3647926E-3,4.52508E-2,1.9955944E-2,9.44941E-2,4.447804E-2,4.7129106E-2,1.4754792E-1],"split_indices":[38,0,0,0,42,0,24,50,35,43,50,0,35,23,49,0,0,0,0,0,0,0,0,0,0,0,0,0,0,0,0],"split_type":[0,0,0,0,0,0,0,0,0,0,0,0,0,0,0,0,0,0,0,0,0,0,0,0,0,0,0,0,0,0,0],"sum_hessian":[2.8259E4,1.9182E4,9.077E3,1.7011E4,2.171E3,6.659E3,2.418E3,7.37E3,9.641E3,1.016E3,1.155E3,8.69E2,5.79E3,2.289E3,1.29E2,5.638E3,1.732E3,3.01E3,6.631E3,1.8E1,9.98E2,4.8E1,1.107E3,1.94E2,6.75E2,1.691E3,4.099E3,1.45E2,2.144E3,3.3E1,9.6E1],"tree_param":{"num_deleted":"0","num_feature":"52","num_nodes":"31","size_leaf_vector":"0"}},{"base_weights":[2.8834602E-1,1.546243E-1,6.557042E-1,4.2595495E-2,3.170637E-1,3.4196636E-1,8.4142727E-1,-1.0496447E-1,7.847885E-2,5.765928E-1,2.5993338E-1,-1.861106E-1,4.1249493E-1,7.1135676E-1,1.2443666E0,-9.775095E-2,-1.169162E0,2.5784442E-1,2.9757563E-2,1.9206087E-1,8.2537097E-1,9.970648E-2,3.539407E-1,-3.0723514E-2,-8.99317E-1,7.1886855E-1,2.509006E-1,9.333713E-1,5.365212E-1,3.280698E0,1.1793883E0],"categories":[],"categories_nodes":[],"categories_segments":[],"categories_sizes":[],"default_left":[1,1,1,1,1,1,1,1,1,1,1,1,1,1,1,0,0,0,0,0,0,0,0,0,0,0,0,0,0,0,0],"id":41,"left_children":[1,3,5,7,9,11,13,15,17,19,21,23,25,27,29,-1,-1,-1,-1,-1,-1,-1,-1,-1,-1,-1,-1,-1,-1,-1,-1],"loss_changes":[1.3827329E3,3.7557272E2,4.3742383E2,6.4691315E1,1.2475256E2,1.041752E2,2.4638794E2,1.8232828E1,8.5869705E1,1.4515378E2,1.0398636E2,3.6543983E1,1.2190692E2,1.3803369E2,1.4829614E2,0E0,0E0,0E0,0E0,0E0,0E0,0E0,0E0,0E0,0E0,0E0,0E0,0E0,0E0,0E0,0E0],"parents":[2147483647,0,0,1,1,2,2,3,3,4,4,5,5,6,6,7,7,8,8,9,9,10,10,11,11,12,12,13,13,14,14],"right_children":[2,4,6,8,10,12,14,16,18,20,22,24,26,28,30,-1,-1,-1,-1,-1,-1,-1,-1,-1,-1,-1,-1,-1,-1,-1,-1],"split_conditions":[4.263078E0,2.65E1,2.85E1,1.25E1,2.726825E1,1.35E1,6.821223E0,3.7641711E0,2.2061382E1,1.3506757E0,2.043194E0,4.166667E0,2.9452698E1,1.8726912E1,7.184306E0,-4.8875473E-3,-5.84581E-2,1.2892221E-2,1.4878782E-3,9.603044E-3,4.126855E-2,4.985324E-3,1.7697034E-2,-1.5361757E-3,-4.4965852E-2,3.594343E-2,1.254503E-2,4.6668567E-2,2.682606E-2,1.640349E-1,5.8969416E-2],"split_indices":[38,0,0,0,35,0,38,24,35,24,38,42,35,22,43,0,0,0,0,0,0,0,0,0,0,0,0,0,0,0,0],"split_type":[0,0,0,0,0,0,0,0,0,0,0,0,0,0,0,0,0,0,0,0,0,0,0,0,0,0,0,0,0,0,0],"sum_hessian":[2.8149E4,2.0638E4,7.511E3,1.2215E4,8.423E3,2.794E3,4.717E3,2.389E3,9.826E3,1.518E3,6.905E3,3.29E2,2.465E3,3.568E3,1.149E3,2.374E3,1.5E1,2.098E3,7.728E3,5.97E2,9.21E2,2.554E3,4.351E3,2.71E2,5.8E1,8.5E2,1.615E3,1.57E3,1.998E3,3.4E1,1.115E3],"tree_param":{"num_deleted":"0","num_feature":"52","num_nodes":"31","size_leaf_vector":"0"}},{"base_weights":[2.7913854E-1,1.8257007E-1,8.1727153E-1,6.68963E-2,4.087594E-1,3.4251463E-1,9.8177814E-1,-5.942594E-2,1.1450466E-1,2.8346694E-1,5.5391586E-1,6.8268293E-1,1.0334655E-1,3.8652253E-1,1.1275892E0,-4.4209518E-2,-4.5055318E-1,2.2598779E-1,3.3848286E-2,4.5754856E-1,1.7062901E-1,4.1611314E-1,8.633421E-1,5.7101756E-1,2.2492974E0,7.490569E-2,2.3763623E0,1.0173017E0,2.0347667E-1,1.0869995E0,3.47539E0],"categories":[],"categories_nodes":[],"categories_segments":[],"categories_sizes":[],"default_left":[1,1,1,1,1,1,1,1,1,1,1,1,1,1,0,0,0,0,0,0,0,0,0,0,0,0,0,0,0,0,0],"id":42,"left_children":[1,3,5,7,9,11,13,15,17,19,21,23,25,27,29,-1,-1,-1,-1,-1,-1,-1,-1,-1,-1,-1,-1,-1,-1,-1,-1],"loss_changes":[1.4645317E3,6.25244E2,3.3455933E2,9.51061E1,1.469032E2,8.982936E1,2.7591895E2,2.574437E1,1.0326347E2,8.521185E1,1.5932666E2,7.8486725E1,4.1842236E1,7.230285E1,2.3989526E2,0E0,0E0,0E0,0E0,0E0,0E0,0E0,0E0,0E0,0E0,0E0,0E0,0E0,0E0,0E0,0E0],"parents":[2147483647,0,0,1,1,2,2,3,3,4,4,5,5,6,6,7,7,8,8,9,9,10,10,11,11,12,12,13,13,14,14],"right_children":[2,4,6,8,10,12,14,16,18,20,22,24,26,28,30,-1,-1,-1,-1,-1,-1,-1,-1,-1,-1,-1,-1,-1,-1,-1,-1],"split_conditions":[5.5024576E0,2.95E1,2.45E1,1.55E1,3.45E1,2.9609745E1,1.109E2,3.0575657E0,2.7411755E1,3.0033045E1,7.542422E-1,1.1855E2,2.25E1,3.1257933E1,1.1490942E1,-2.210476E-3,-2.252766E-2,1.1299389E-2,1.6924143E-3,2.2877429E-2,8.53145E-3,2.0805657E-2,4.3167107E-2,2.8550878E-2,1.1246487E-1,3.7452846E-3,1.1881812E-1,5.0865084E-2,1.0173834E-2,5.4349978E-2,1.737695E-1],"split_indices":[38,0,0,0,0,35,7,24,35,35,48,7,26,35,45,0,0,0,0,0,0,0,0,0,0,0,0,0,0,0,0],"split_type":[0,0,0,0,0,0,0,0,0,0,0,0,0,0,0,0,0,0,0,0,0,0,0,0,0,0,0,0,0,0,0],"sum_hessian":[2.8184E4,2.3897E4,4.287E3,1.5812E4,8.085E3,1.104E3,3.183E3,4.328E3,1.1484E4,4.341E3,3.744E3,4.55E2,6.49E2,6.27E2,2.556E3,4.167E3,1.61E2,4.82E3,6.664E3,1.706E3,2.635E3,2.592E3,1.152E3,4.26E2,2.9E1,6.42E2,7E0,1.4E2,4.87E2,2.514E3,4.2E1],"tree_param":{"num_deleted":"0","num_feature":"52","num_nodes":"31","size_leaf_vector":"0"}},{"base_weights":[2.5421935E-1,1.7138332E-1,8.169988E-1,8.177159E-2,3.2916412E-1,6.53191E-1,1.1827451E0,7.609665E-2,1.3098906E0,2.0462228E-1,4.4098756E-1,3.5392424E-1,8.396381E-1,1.0969493E0,2.8513365E0,-5.5865142E-2,1.2052601E-1,2.8057737E0,5.0349545E-1,3.6368212E-1,1.4316067E-1,3.6595935E-1,6.0974234E-1,6.2049013E-1,1.6518815E-1,7.907989E-1,2.1680725E0,4.2667065E0,1.0658644E0,2.4731078E0,6.960918E0],"categories":[],"categories_nodes":[],"categories_segments":[],"categories_sizes":[],"default_left":[1,1,0,1,1,1,0,1,0,1,1,1,1,0,1,0,0,0,0,0,0,0,0,0,0,0,0,0,0,0,0],"id":43,"left_children":[1,3,5,7,9,11,13,15,17,19,21,23,25,27,29,-1,-1,-1,-1,-1,-1,-1,-1,-1,-1,-1,-1,-1,-1,-1,-1],"loss_changes":[1.3134271E3,3.472696E2,2.1580957E2,1.09091484E2,1.2381555E2,1.391405E2,1.5677979E2,9.144574E1,8.543895E1,4.111499E1,5.9120728E1,4.8245995E1,9.81355E1,1.0028967E2,6.672046E1,0E0,0E0,0E0,0E0,0E0,0E0,0E0,0E0,0E0,0E0,0E0,0E0,0E0,0E0,0E0,0E0],"parents":[2147483647,0,0,1,1,2,2,3,3,4,4,5,5,6,6,7,7,8,8,9,9,10,10,11,11,12,12,13,13,14,14],"right_children":[2,4,6,8,10,12,14,16,18,20,22,24,26,28,30,-1,-1,-1,-1,-1,-1,-1,-1,-1,-1,-1,-1,-1,-1,-1,-1],"split_conditions":[5.6828685E0,2.7361112E0,7.416667E0,4.7937927E0,9.944E1,6.3199997E1,1.1883117E1,1.0300769E0,4.6625767E0,2.9202374E1,6.72E1,3.1979544E1,3.0859606E1,-3.502905E0,3.75E1,-2.7932571E-3,6.0263006E-3,1.402887E-1,2.5174772E-2,1.8184107E-2,7.1580335E-3,1.8297968E-2,3.0487118E-2,3.1024506E-2,8.259407E-3,3.9539944E-2,1.0840362E-1,2.1333532E-1,5.3293224E-2,1.2365539E-1,3.4804592E-1],"split_indices":[38,38,42,45,8,9,45,45,49,35,9,35,51,47,50,0,0,0,0,0,0,0,0,0,0,0,0,0,0,0,0],"split_type":[0,0,0,0,0,0,0,0,0,0,0,0,0,0,0,0,0,0,0,0,0,0,0,0,0,0,0,0,0,0,0],"sum_hessian":[2.8176E4,2.4562E4,3.614E3,1.5666E4,8.896E3,2.498E3,1.116E3,1.5595E4,7.1E1,4.21E3,4.686E3,9.6E2,1.538E3,1.063E3,5.3E1,3.928E3,1.1667E4,2.4E1,4.7E1,1.172E3,3.038E3,3.246E3,1.44E3,3.97E2,5.63E2,1.485E3,5.3E1,9E0,1.054E3,5E1,3E0],"tree_param":{"num_deleted":"0","num_feature":"52","num_nodes":"31","size_leaf_vector":"0"}},{"base_weights":[2.4336462E-1,1.6412753E-1,7.0588183E-1,8.9089744E-2,4.190855E-1,5.3169256E-1,1.1823184E0,-3.814013E-2,1.4563161E-1,3.8873255E-1,9.84855E-1,-2.0821223E-2,6.198134E-1,2.1440952E0,1.0600249E0,-2.0258674E-1,-4.638839E-3,2.178249E-1,2.6620466E-2,5.2970964E-1,2.777717E-1,5.071874E-1,1.3467208E0,1.2908274E-1,-6.130509E-1,1.1426563E0,4.7182027E-1,1.5608518E0,3.1929E0,9.790619E-1,2.5108602E0],"categories":[],"categories_nodes":[],"categories_segments":[],"categories_sizes":[],"default_left":[1,1,1,1,1,1,1,1,1,1,0,0,1,1,0,0,0,0,0,0,0,0,0,0,0,0,0,0,0,0,0],"id":44,"left_children":[1,3,5,7,9,11,13,15,17,19,21,23,25,27,29,-1,-1,-1,-1,-1,-1,-1,-1,-1,-1,-1,-1,-1,-1,-1,-1],"loss_changes":[1.0293044E3,4.5877386E2,3.402948E2,1.3330696E2,9.326019E1,1.4656366E2,1.2699072E2,3.1412369E1,1.10218475E2,8.0836365E1,4.719687E1,3.692183E1,2.0033197E2,7.025647E1,1.12303955E2,0E0,0E0,0E0,0E0,0E0,0E0,0E0,0E0,0E0,0E0,0E0,0E0,0E0,0E0,0E0,0E0],"parents":[2147483647,0,0,1,1,2,2,3,3,4,4,5,5,6,6,7,7,8,8,9,9,10,10,11,11,12,12,13,13,14,14],"right_children":[2,4,6,8,10,12,14,16,18,20,22,24,26,28,30,-1,-1,-1,-1,-1,-1,-1,-1,-1,-1,-1,-1,-1,-1,-1,-1],"split_conditions":[5.538561E0,3.25E1,3.55E1,1.75E1,2.3886688E0,1.75E1,1.5466436E1,8.5E0,1.1131255E1,4.571409E1,1.7833332E1,2.35E1,9.620811E0,3.85E1,1.071798E1,-1.0129337E-2,-2.3194196E-4,1.0891246E-2,1.3310233E-3,2.6485482E-2,1.3888585E-2,2.5359372E-2,6.7336045E-2,6.454137E-3,-3.0652544E-2,5.7132818E-2,2.3591014E-2,7.804259E-2,1.59645E-1,4.8953097E-2,1.2554301E-1],"split_indices":[38,0,0,0,48,0,43,0,22,25,40,50,43,0,45,0,0,0,0,0,0,0,0,0,0,0,0,0,0,0,0],"split_type":[0,0,0,0,0,0,0,0,0,0,0,0,0,0,0,0,0,0,0,0,0,0,0,0,0,0,0,0,0,0,0],"sum_hessian":[2.8088E4,2.3981E4,4.107E3,1.8529E4,5.452E3,3.009E3,1.098E3,5.701E3,1.2828E4,5.176E3,2.76E2,4.14E2,2.595E3,1.22E2,9.76E2,9.64E2,4.737E3,7.984E3,4.844E3,2.278E3,2.898E3,1.2E2,1.56E2,3.31E2,8.3E1,5.71E2,2.024E3,8E1,4.2E1,9.26E2,5E1],"tree_param":{"num_deleted":"0","num_feature":"52","num_nodes":"31","size_leaf_vector":"0"}},{"base_weights":[2.2828686E-1,1.14798725E-1,5.362023E-1,2.725348E-2,2.436655E-1,2.5321603E-1,7.0785314E-1,5.6715358E-2,-1.5562992E-1,4.2745817E-1,1.7798139E-1,-2.3371942E-1,3.2171163E-1,6.248892E-1,1.2953322E0,-3.8955417E-2,1.4234322E-1,-2.7192885E-1,-7.752776E-2,4.1822293E-1,4.3943954E0,1.2226694E-1,4.7308013E-1,-1.097839E-1,-7.458321E-1,6.278607E-1,1.6744117E-1,1.1256611E0,5.3880167E-1,1.2347324E0,4.6563497E0],"categories":[],"categories_nodes":[],"categories_segments":[],"categories_sizes":[],"default_left":[1,1,1,0,1,1,1,0,0,1,1,1,1,1,0,0,0,0,0,0,0,0,0,0,0,0,0,0,0,0,0],"id":45,"left_children":[1,3,5,7,9,11,13,15,17,19,21,23,25,27,29,-1,-1,-1,-1,-1,-1,-1,-1,-1,-1,-1,-1,-1,-1,-1,-1],"loss_changes":[9.871626E2,2.3289224E2,3.6937793E2,6.6249985E1,1.0073932E2,9.59315E1,2.2997241E2,8.6751526E1,1.54748535E1,7.868738E1,1.0112169E2,2.2449593E1,1.1891385E2,1.7834412E2,1.13401794E2,0E0,0E0,0E0,0E0,0E0,0E0,0E0,0E0,0E0,0E0,0E0,0E0,0E0,0E0,0E0,0E0],"parents":[2147483647,0,0,1,1,2,2,3,3,4,4,5,5,6,6,7,7,8,8,9,9,10,10,11,11,12,12,13,13,14,14],"right_children":[2,4,6,8,10,12,14,16,18,20,22,24,26,28,30,-1,-1,-1,-1,-1,-1,-1,-1,-1,-1,-1,-1,-1,-1,-1,-1],"split_conditions":[4.2433915E0,2.65E1,2.85E1,2.8166668E1,2.848904E1,1.35E1,7.942277E0,1.1666667E0,1.0689123E0,5.605769E0,3.75E1,3.95E0,2.9452698E1,3.0502514E1,1.3083334E1,-1.9477708E-3,7.117161E-3,-1.35964425E-2,-3.876388E-3,2.0911148E-2,2.1971977E-1,6.113347E-3,2.3654006E-2,-5.489195E-3,-3.7291605E-2,3.1393036E-2,8.372059E-3,5.6283057E-2,2.6940083E-2,6.173662E-2,2.3281749E-1],"split_indices":[38,0,0,50,35,0,38,42,46,45,0,20,35,35,44,0,0,0,0,0,0,0,0,0,0,0,0,0,0,0,0],"split_type":[0,0,0,0,0,0,0,0,0,0,0,0,0,0,0,0,0,0,0,0,0,0,0,0,0,0,0,0,0,0,0],"sum_hessian":[2.825E4,2.0643E4,7.607E3,1.2293E4,8.35E3,2.873E3,4.734E3,1.0588E4,1.705E3,2.197E3,6.153E3,3.54E2,2.519E3,4.15E3,5.84E2,5.001E3,5.587E3,6.84E2,1.021E3,2.193E3,4E0,5.177E3,9.76E2,2.86E2,6.8E1,8.43E2,1.676E3,6.07E2,3.543E3,5.75E2,9E0],"tree_param":{"num_deleted":"0","num_feature":"52","num_nodes":"31","size_leaf_vector":"0"}},{"base_weights":[2.2692016E-1,1.2546268E-1,5.73003E-1,3.8847763E-2,2.7393752E-1,5.0959045E-1,1.2606723E0,-3.2447938E-2,1.22854635E-1,9.653057E-2,3.6065412E-1,3.1718805E-2,5.7847756E-1,1.4181116E0,1.2803282E-1,9.7129166E-2,-1.001766E-1,5.1190287E-1,7.82061E-2,-1.9763412E-1,1.5248698E-1,1.0059582E0,3.2267648E-1,3.7315363E-1,-2.9098004E-1,3.9285788E-1,7.695287E-1,2.8843584E0,1.2345111E0,-2.982959E-1,2.9086285E0],"categories":[],"categories_nodes":[],"categories_segments":[],"categories_sizes":[],"default_left":[1,1,1,1,1,1,0,1,0,1,1,1,1,1,1,0,0,0,0,0,0,0,0,0,0,0,0,0,0,0,0],"id":46,"left_children":[1,3,5,7,9,11,13,15,17,19,21,23,25,27,29,-1,-1,-1,-1,-1,-1,-1,-1,-1,-1,-1,-1,-1,-1,-1,-1],"loss_changes":[9.918613E2,2.8094473E2,2.7861597E2,8.2650734E1,1.2379205E2,1.9305286E2,9.611212E1,6.552319E1,1.1000168E2,4.355143E1,1.3216107E2,8.164224E1,1.8148035E2,1.24041626E2,8.029264E1,0E0,0E0,0E0,0E0,0E0,0E0,0E0,0E0,0E0,0E0,0E0,0E0,0E0,0E0,0E0,0E0],"parents":[2147483647,0,0,1,1,2,2,3,3,4,4,5,5,6,6,7,7,8,8,9,9,10,10,11,11,12,12,13,13,14,14],"right_children":[2,4,6,8,10,12,14,16,18,20,22,24,26,28,30,-1,-1,-1,-1,-1,-1,-1,-1,-1,-1,-1,-1,-1,-1,-1,-1],"split_conditions":[4.166667E0,2.4684618E0,3.95E1,2.35E1,2.15E1,2.25E1,3.95E1,2.1538252E1,5.925824E0,1.05E1,1.6416668E1,2.9264076E1,5.545986E0,1.4033333E1,8.716305E0,4.8564584E-3,-5.00883E-3,2.5595143E-2,3.910305E-3,-9.881706E-3,7.624349E-3,5.0297912E-2,1.6133824E-2,1.8657682E-2,-1.4549002E-2,1.9642895E-2,3.8476434E-2,1.4421792E-1,6.1725557E-2,-1.4914795E-2,1.4543143E-1],"split_indices":[42,38,0,0,0,0,50,35,43,0,50,35,38,22,24,0,0,0,0,0,0,0,0,0,0,0,0,0,0,0,0],"split_type":[0,0,0,0,0,0,0,0,0,0,0,0,0,0,0,0,0,0,0,0,0,0,0,0,0,0,0,0,0,0,0],"sum_hessian":[2.8249E4,2.1846E4,6.403E3,1.3798E4,8.048E3,5.864E3,5.39E2,7.464E3,6.334E3,2.643E3,5.405E3,7.39E2,5.125E3,4.73E2,6.6E1,2.562E3,4.902E3,6.51E2,5.683E3,4.22E2,2.221E3,2.99E2,5.106E3,3.59E2,3.8E2,2.601E3,2.524E3,5.1E1,4.22E2,5.8E1,8E0],"tree_param":{"num_deleted":"0","num_feature":"52","num_nodes":"31","size_leaf_vector":"0"}},{"base_weights":[2.0145407E-1,1.1986196E-1,5.711428E-1,7.5997315E-2,4.2594782E-1,4.0663493E-1,8.307826E-1,-4.2539664E-2,1.277432E-1,4.0483292E-2,5.640732E-1,1.217506E0,3.6640462E-1,7.3723423E-1,1.6708745E0,4.1831125E-2,-8.9900166E-2,2.2970466E-1,5.0359547E-2,4.1217232E-1,-2.9878417E-1,1.6582142E-1,6.956416E-1,2.728155E0,7.902797E-1,1.6108482E-1,4.9510488E-1,1.513135E0,6.4235026E-1,-3.8119555E-2,1.9194964E0],"categories":[],"categories_nodes":[],"categories_segments":[],"categories_sizes":[],"default_left":[1,1,1,1,1,0,1,0,1,1,1,0,1,1,1,0,0,0,0,0,0,0,0,0,0,0,0,0,0,0,0],"id":47,"left_children":[1,3,5,7,9,11,13,15,17,19,21,23,25,27,29,-1,-1,-1,-1,-1,-1,-1,-1,-1,-1,-1,-1,-1,-1,-1,-1],"loss_changes":[8.494917E2,3.0976718E2,2.1715564E2,1.23803955E2,1.5395428E2,1.0130066E2,1.5390332E2,2.4514263E1,1.1084503E2,9.646507E1,1.1143866E2,9.271617E1,7.8480896E1,1.2992542E2,8.377722E1,0E0,0E0,0E0,0E0,0E0,0E0,0E0,0E0,0E0,0E0,0E0,0E0,0E0,0E0,0E0,0E0],"parents":[2147483647,0,0,1,1,2,2,3,3,4,4,5,5,6,6,7,7,8,8,9,9,10,10,11,11,12,12,13,13,14,14],"right_children":[2,4,6,8,10,12,14,16,18,20,22,24,26,28,30,-1,-1,-1,-1,-1,-1,-1,-1,-1,-1,-1,-1,-1,-1,-1,-1],"split_conditions":[3.45E1,5.5024576E0,4.833333E0,1.246476E0,1.119E2,2.1833332E1,4.15E1,5.7363453E0,2.8785269E1,3.1257933E1,2.15E1,1.8333333E0,2.4181285E0,3.1421665E1,6.015E1,2.0915563E-3,-4.4950084E-3,1.1485233E-2,2.5179775E-3,2.0608617E-2,-1.49392085E-2,8.291071E-3,3.4782078E-2,1.3640775E-1,3.9513987E-2,8.054241E-3,2.4755245E-2,7.565675E-2,3.2117512E-2,-1.9059777E-3,9.5974825E-2],"split_indices":[0,38,42,24,7,50,0,43,35,35,0,41,38,35,9,0,0,0,0,0,0,0,0,0,0,0,0,0,0,0,0],"split_type":[0,0,0,0,0,0,0,0,0,0,0,0,0,0,0,0,0,0,0,0,0,0,0,0,0,0,0,0,0,0,0],"sum_hessian":[2.8164E4,2.3073E4,5.091E3,2.0182E4,2.891E3,3.118E3,1.973E3,6.133E3,1.4049E4,7.63E2,2.128E3,1.46E2,2.972E3,1.777E3,1.96E2,2.205E3,3.928E3,6.061E3,7.988E3,3.64E2,3.99E2,5.29E2,1.599E3,3.1E1,1.15E2,1.146E3,1.826E3,1.92E2,1.585E3,2.5E1,1.71E2],"tree_param":{"num_deleted":"0","num_feature":"52","num_nodes":"31","size_leaf_vector":"0"}},{"base_weights":[1.8461232E-1,6.480225E-2,3.9659396E-1,9.124958E-3,1.7248361E-1,3.3376482E-1,9.4209546E-1,1.0606243E-1,-3.280172E-2,1.6838337E-1,4.3164053E0,2.658112E-1,6.046128E-1,1.5460339E0,7.0615906E-1,-8.0215484E-2,2.0021728E-1,9.842038E-2,-6.757337E-2,4.1138116E-1,1.1626169E-1,6.7777815E0,-4.0423107E-1,